the -0.826522 1.871566 0.776165 0.568604 -0.688276 -1.711209 0.741316 1.912913 1.654013 -1.022052 -1.454083 0.233198 -2.320986 -2.079544 -0.715689 -1.707580 -1.377865 -0.566636 -1.806312 -1.738675 0.018617 0.032577 -0.639004 -0.020680 -1.684258
I -0.224414 1.798311 -0.938214 -0.179454 1.681778 1.377722 -1.861860 0.723386 -0.997538 -1.118741 -1.297561 -1.072979 -1.560721 -1.327751 -2.874328 -1.632170 -0.460489 -0.432054 -1.558470 -1.155919 0.508612 -0.447180 0.020271 -0.588066 -0.983425
and -0.064725 0.977177 0.171189 -0.048336 1.686062 -1.218580 -1.804625 1.048245 -0.037550 -0.792335 -2.341044 1.873730 -1.814882 -0.315077 -1.995635 -0.138346 -0.233008 1.160253 -2.052004 -0.575673 0.016395 -0.637852 0.622127 0.348878 1.311110
to -0.911158 0.301030 0.295106 -0.544575 -0.872369 1.141670 -0.214964 -0.163579 -0.609072 0.620471 -3.120743 0.974209 -2.618161 -0.440023 -1.877888 1.176774 -0.835093 -1.377400 -2.815482 -0.654427 -1.037254 1.237304 1.252099 0.549425 -0.658683
a 1.011727 0.727419 0.975995 1.686397 -0.816903 0.647207 -1.269318 -1.287587 1.460002 -1.190376 -1.893169 1.615404 -1.476123 0.074439 -1.653356 -0.641499 0.550961 -1.477203 -1.913840 -1.133813 1.054680 -1.448510 1.358421 -0.452440 -1.688649
my -0.121977 1.956591 0.449419 -0.422447 0.007146 -0.861960 -1.103892 -0.254360 -0.676104 -0.804673 -2.287669 -0.907611 -0.820771 0.005704 -1.265735 0.888515 -1.772276 -1.440423 -1.294473 -0.759516 -0.120719 -2.657326 -1.082745 -0.812347 -1.209241
of 0.251996 0.436743 0.469353 0.486579 -0.359278 -1.542543 -0.995550 0.483713 0.082335 -0.125345 -1.605787 0.386971 -2.145105 0.190329 -1.073336 -2.112965 -1.099964 0.755479 -2.186028 2.295336 0.212319 -0.298935 -1.968149 -0.268152 -2.303615
was 1.015259 1.778763 -1.121030 -0.341609 1.423055 0.461336 -1.063327 0.724287 0.597344 0.560077 -2.491258 0.040716 -0.873278 -0.195303 -0.206293 0.107786 0.458490 0.884316 -1.624206 -0.213352 -0.189882 -0.995380 1.432684 -0.689824 -1.560863
in -0.434744 0.929222 0.593912 -0.622585 -0.460579 -2.106808 -0.566837 0.124262 0.509073 -0.331757 -1.501528 1.139244 -1.883573 -0.493659 -0.896495 -0.590280 -0.197473 -0.176815 -1.598605 -0.480681 -0.503714 -1.004404 0.409097 -1.265623 -1.021863
it 0.184281 0.902759 -0.167658 0.163981 0.841326 -0.451014 -0.416647 0.258727 2.491038 0.085720 -2.288859 -1.190643 -1.605785 -1.495680 -0.909074 -0.117026 -0.299646 -0.284924 -0.691208 -0.456484 -1.083460 -0.311616 0.881288 -1.195460 -0.894430
on -1.252731 0.772965 0.969806 -0.275658 0.044731 -1.454972 -0.324168 0.411518 0.848249 -0.370241 -1.392911 1.239892 -2.486328 -0.601136 -0.467244 -0.375898 -1.002857 0.104360 -0.959032 -0.346037 -0.974994 -0.390124 -0.135712 -1.271090 -1.521169
that -0.746225 0.958772 0.275989 -0.563637 -0.084252 0.282788 -2.445158 0.072724 1.176986 0.608123 -1.604161 -0.603894 -1.627151 -0.422946 -0.554862 -0.441211 -0.853908 0.875267 -1.322914 0.130843 -0.345801 -0.542482 0.899833 0.263434 -1.345654
for 0.293803 -0.334932 0.425694 -0.689452 -0.198244 -0.848956 -0.536424 -1.098338 0.636430 0.762262 -2.217859 1.215457 -1.426665 1.096236 -0.964538 -0.067624 0.176913 -0.579576 -2.158071 -0.658019 -0.369247 -1.638229 1.264424 1.266100 -1.114114
we -0.382189 0.474772 0.431768 1.064299 1.062922 -0.405997 -2.105823 -0.305554 -1.777695 0.413482 -1.736620 -0.859735 -1.328384 -0.892641 -0.921782 -1.179982 -0.838392 1.042011 -0.804245 -1.151701 -0.549543 0.294353 1.592290 0.664302 -1.046659
with -0.172316 0.530620 0.727176 -0.150819 0.884439 -1.561017 -0.749521 0.214589 1.008957 -0.184079 -1.909725 0.932260 -1.149284 1.304330 -1.129645 0.062911 -0.296131 0.072866 -1.845753 -0.606286 0.021399 -0.856644 0.132282 0.081949 -0.758087
. 0.467766 -0.275704 -0.333131 -0.784887 1.190277 0.379922 -1.101041 0.760796 -0.445208 0.027240 -1.097431 0.888162 -1.389951 -0.044220 0.367301 -1.076244 -0.536255 -0.784728 -1.860026 -1.459792 -0.921180 -1.080870 0.747513 -0.675960 -0.263970
so 0.163776 1.094568 -0.109146 -0.614061 0.630178 -0.411376 -2.277733 0.327755 0.302012 -0.053422 -1.908232 0.165710 -0.756863 -0.507940 -0.776961 -0.240077 0.061193 0.529513 -1.363969 -0.479319 0.308779 0.155843 0.775443 0.056731 -1.035041
out -0.363444 -0.068752 0.841824 0.102966 -0.061800 -0.679979 -0.024485 -0.468899 0.544702 -0.591836 -1.771551 0.063922 -0.874629 -1.210681 -1.892855 -0.586455 -0.911822 0.482944 -1.463467 -0.310217 0.072201 -1.214329 -0.138157 -0.795388 -1.159722
had -0.178811 1.253493 -0.550959 0.462318 0.949062 0.554104 -1.580780 -0.614036 -0.358679 -0.167507 -2.126927 0.302650 -1.225452 -0.258873 -0.648381 -0.484704 0.319824 0.745499 -0.945854 -0.057959 -0.062092 -0.067205 1.104413 0.371407 -1.314160
put 0.138635 0.506229 0.197704 0.950066 0.433488 -1.105967 -0.779998 0.245630 0.308266 -1.234372 -0.847621 0.681213 -1.746117 -0.698862 -1.425093 -0.381811 -1.257167 0.107609 -0.998060 -0.309347 -0.215077 -0.347939 -0.107235 -1.109103 -0.456291
up -1.358235 -0.350698 -0.234133 0.079515 0.514831 -1.213261 0.096046 -0.202777 1.608106 -0.119469 -2.141465 -0.314580 -0.482987 -0.256878 -1.237224 -0.377458 -1.144702 0.502162 -1.179505 -0.997244 -0.396683 -1.164862 -0.067683 -0.938745 -0.845436
We -0.910530 0.432463 -0.277940 1.630476 1.621331 0.023858 -1.020367 -0.867106 -1.904621 -0.048291 -1.538930 0.626692 -0.727053 -0.426194 -0.598971 -1.686717 -0.760732 0.362554 -0.717076 -1.181377 -0.469405 0.217676 1.010238 0.294818 -0.868295
all -0.816194 0.453836 -0.379390 0.697728 0.392611 -1.938004 -0.583815 -0.027557 0.375654 -0.501972 -1.812502 -0.380843 -1.184331 -0.450731 -0.747746 -0.731238 -0.906688 0.881727 -0.855516 -0.008941 -0.786091 -0.416089 -0.019684 -0.371870 -1.352540
into -0.324806 0.460675 0.449884 0.533945 -0.308935 -1.746178 0.331126 0.084609 0.347813 -0.386546 -0.859390 0.851144 -1.996392 -0.899764 -1.579985 -0.288134 -0.477434 -0.146753 -1.474074 -0.585135 0.046728 -0.924965 -0.459049 -1.317677 -0.434200
is 0.604623 1.524714 -1.182004 -0.227303 0.026331 -0.135523 -1.647003 0.997935 1.212002 0.350312 -1.622689 0.266077 -0.591363 -0.020233 -0.331917 0.173485 0.261087 0.128914 -1.163063 0.137351 -0.695045 -0.295271 1.119484 -0.534656 -1.192491
then -0.410397 1.315572 0.146475 0.676786 2.044843 -0.156068 -0.921105 0.294847 -0.334733 -0.124295 -1.271092 0.322892 -1.205950 -0.975061 -2.161978 -1.073087 -0.053624 0.295708 -1.143398 -0.610894 -0.321571 -0.048809 -0.069962 -0.065136 0.470741
at -0.694914 -0.304850 1.115032 -0.680633 -0.266683 -1.583530 -0.274359 0.245844 -0.180954 0.802908 -2.123883 -0.005654 -1.344566 0.741305 -0.485171 -1.217179 -0.162655 -0.345771 -1.121210 -0.516167 -0.532757 -0.991915 0.413477 -0.044330 -1.180485
The -0.270271 1.816294 -0.283811 1.115206 -0.419210 0.386338 -0.136259 1.194829 -0.230353 0.129435 -0.903866 0.345851 -0.831962 0.183618 0.047175 -1.394706 -1.506067 -0.514610 -1.109539 -0.767053 0.413163 -0.437206 0.699484 -1.113000 -1.131418
them -0.310123 -0.033326 -0.162064 0.569129 0.066640 -1.511471 -0.158834 -0.781462 1.605561 -0.709240 -1.173367 -0.022693 -0.936088 -1.212366 -1.521062 -0.144267 -1.171107 0.265791 -1.044519 -0.000523 -1.017994 -0.269417 0.106728 -0.757617 -0.631667
me -1.204970 0.482968 -0.284956 -0.000765 0.050041 0.385183 -0.067410 -1.125090 1.176661 0.192446 -2.271545 0.034415 0.093702 -0.420350 -0.407759 -0.177630 -0.754094 -0.214916 -2.059243 0.448282 -0.656320 -1.591816 0.843986 0.965362 0.288089
some 0.137560 0.119256 0.483909 0.514872 0.031026 -0.719206 -0.516599 -0.934592 0.668887 -1.218496 -1.215823 1.359634 -0.991760 -0.052917 -1.341112 -0.053970 -1.204614 0.109636 -0.521384 0.179065 0.002119 -0.755337 0.295932 0.368939 -1.632970
got 0.042479 0.759687 0.234937 0.661451 0.858658 -0.323785 -0.230017 -0.143475 -1.337505 -0.310503 -1.589456 -0.447598 -0.869232 -0.972594 -0.792682 -0.483394 -0.570425 0.938796 -1.257625 -0.896921 -0.238095 -1.050723 0.626475 -0.538476 -0.858782
went -0.478172 0.586694 0.559563 0.440223 0.244097 0.118015 -0.164483 0.210006 -1.686540 0.232957 -1.681512 0.082810 -1.262450 -0.782239 -1.067276 -0.572630 -0.631634 0.304865 -1.542127 -1.220593 -0.290878 -0.491996 0.466888 -0.401957 -0.035990
our -0.795557 -0.063649 1.110109 1.095313 -0.565064 -2.069128 -0.261797 -0.958548 -1.058971 -0.310005 -1.601138 0.173305 -1.179323 0.498940 0.215160 -0.098047 -1.220252 -0.102020 -0.611873 -0.604951 -0.578778 -1.212684 0.637526 0.257703 -1.225578
would -1.249287 0.025737 -1.040486 -0.338861 -0.597851 0.159436 -1.989513 -0.031461 -0.136789 0.614458 -2.051370 -0.465075 -0.848401 -0.977615 -0.757913 -0.669042 0.046730 -0.534027 -1.259539 0.493506 -0.952680 -0.150170 1.276222 0.196314 -0.722626
get -0.101052 -0.002224 -0.440167 -0.542707 -0.065785 -0.210752 -0.773627 -0.306635 -0.159228 -0.195605 -2.109387 0.249465 -0.506447 -0.667727 -0.888838 -0.055057 -0.646988 0.002942 -1.325625 -0.793440 -0.608358 0.108634 0.580277 -0.176279 -1.179955
were 0.513706 0.717500 -1.199257 1.011496 0.508399 -1.477045 -1.608630 -0.283989 -0.055423 0.788465 -1.892087 0.652074 -0.159751 -0.861464 0.302872 -0.675140 -0.039222 1.583744 -0.921290 0.064169 -0.640283 0.174763 0.965462 0.267125 -1.291507
her -1.299920 0.911952 0.371516 0.135678 -0.028143 -0.113097 -0.135466 -0.893764 0.491232 -0.438454 -1.504168 -0.207769 -0.001947 -0.023114 -0.391578 0.426818 -1.366413 -0.073969 -2.348868 0.346283 -0.676624 -2.265473 0.216865 -0.014105 -0.115166
, 0.878352 0.150006 -0.035344 -1.166614 1.212796 -0.201288 -1.271889 0.823461 -0.708358 0.112539 -0.987158 0.221874 -1.105017 -0.278489 0.117684 -0.896689 -0.357611 -0.345640 -1.307645 -1.224703 -0.373479 -0.762133 0.818897 -0.548569 -0.449896
from -0.568970 0.123848 0.501843 -0.465336 -0.136951 -1.551196 -0.376492 0.179255 0.214622 -0.637626 -1.223319 0.508531 -1.801578 -0.112763 -0.881361 0.001718 -0.331016 0.302919 -1.290880 -0.177838 -0.375003 -0.880029 0.161296 -0.722042 -0.550927
have -0.441097 0.592352 -0.922136 -0.188621 -0.265264 0.112743 -1.689658 -0.870105 0.121630 -0.348763 -1.880485 0.352188 -0.617464 0.112856 -0.713511 -0.632353 -0.214849 -0.579178 -0.583659 -0.213006 -0.516322 0.946867 0.761068 0.559439 -1.380627
back -0.447595 -0.026433 0.249090 0.216257 -0.128178 -0.794406 0.528679 -0.342553 -0.141084 0.502356 -1.567132 0.323940 -1.441091 -1.156848 -1.106788 0.534537 -0.579821 0.851246 -1.613897 -1.004143 -0.898717 -1.092839 -0.386323 -1.390196 -0.045281
as 1.961798 1.573621 0.513014 -0.755970 -0.328857 -1.017970 -1.189406 -0.339299 0.207558 -0.719241 -1.263586 -0.237233 -0.107901 0.077666 -0.549866 -0.665253 0.519587 0.540198 -1.041583 -0.938993 -2.019307 0.002480 0.581385 0.026377 -0.324262
After 1.324109 0.358848 -1.098579 0.665359 1.179006 -0.161586 -0.357317 -0.563029 -0.365790 -0.834170 -0.383225 -0.820600 -0.764969 0.035129 0.081442 -1.393843 -0.870792 0.538261 -1.313830 -0.792618 -0.410648 -0.478372 1.336068 -0.426355 -1.138515
took 0.196764 0.852285 0.233428 0.953757 0.743807 0.087856 0.245875 0.203604 0.094467 -0.379607 -1.064085 0.039438 -1.134306 -0.474110 -0.813703 -0.554163 -0.286788 0.507873 -1.225032 -0.157453 0.126170 -1.393552 0.804307 -0.370752 -0.648504
make -0.277776 0.455509 0.172737 -0.191757 -0.710528 0.636628 -1.200798 -0.048455 0.623758 -0.835360 -2.114666 0.133556 -0.893682 0.283601 -0.894062 -0.238841 -0.708035 -0.784089 -0.655394 -0.359812 -1.195363 -0.081970 0.210886 0.668146 -0.465607
be -0.025952 0.375211 -1.620466 -0.478818 -0.231887 -0.000397 -1.404482 -0.361945 0.356814 0.190270 -2.494758 0.504969 0.122245 -0.303602 -0.402922 -0.337200 0.404232 0.378795 -0.795290 -0.444333 -0.883052 0.529436 0.744160 -0.285790 -1.276260
It 0.818698 1.296293 -1.478772 0.860800 0.784392 0.773671 -0.481689 0.519717 -0.128843 0.213096 -1.334981 -0.204256 -0.243061 0.118284 0.130679 -0.690400 0.220785 -0.171632 -1.030514 -0.377249 -0.281278 -0.518335 1.342420 -0.868770 -1.319015
they 0.239321 1.007686 -0.441896 0.677871 0.063450 -0.666175 -2.272659 -0.230452 -0.031777 0.548256 -1.078232 -1.036862 -0.398502 -1.457922 -0.637147 -0.525994 -0.751159 0.429179 -1.170232 -0.268481 -1.215706 0.215646 0.852117 0.624714 -0.404127
When 0.347911 0.882341 -0.639381 0.745086 0.919931 0.169823 -0.741024 0.394549 -0.845146 0.060497 -0.695665 -1.074805 -0.336565 -0.725372 -0.071995 -0.909805 -1.184790 0.007860 -1.067532 -1.112756 -0.882663 -0.098509 0.880056 -0.641600 -0.946412
she -0.206181 1.692974 -0.123427 0.587532 0.986572 0.524297 -1.534104 0.065344 0.031536 0.452903 -0.890665 -1.198462 -0.079156 -1.015275 -0.480913 -0.428074 -0.407716 1.162794 -1.917224 -0.213994 -0.976834 -0.977797 1.112226 0.324043 0.150546
go -0.696883 -0.259325 0.374859 -0.441636 -0.611275 0.371241 -0.581654 -0.298203 -0.787688 0.302032 -2.153235 0.295311 -0.866752 -0.594282 -1.105470 0.177624 -0.550859 -0.384264 -1.435662 -0.750240 -0.765988 0.538291 0.797909 -0.116146 -0.628458
decided -0.888156 0.313910 0.210723 -0.128536 0.352499 0.760088 -1.870509 -0.336239 -0.846505 0.189746 -1.319723 -0.257197 -1.127105 -0.332121 -0.868180 -0.360054 -0.584703 -0.472262 -1.027145 -0.144363 -0.051608 0.278468 1.152823 0.535616 -0.924465
sure -0.478398 1.086853 -0.197690 0.372634 -0.050804 0.439060 -0.916306 0.056453 1.435054 -1.401281 -2.266623 -0.571163 -0.610845 -0.085239 -0.443981 -0.592780 -0.445979 -0.167917 -0.301137 -0.052098 -1.636775 0.048471 0.137275 0.662878 -0.437235
time 0.220017 0.496308 -0.174384 -0.692792 0.099904 0.512422 -0.773739 0.080305 0.012661 0.859590 -1.880566 -0.246659 -1.294153 0.688325 -0.608474 -0.381508 -0.454957 0.048526 -0.959685 -0.068401 -0.303252 0.021234 0.916714 -0.113171 -1.529341
he -0.164497 2.011896 0.043852 0.662577 1.127171 0.307337 -1.252622 0.128353 0.289083 0.815831 -1.204150 -1.126194 -0.203155 -0.794836 -0.298322 -0.139501 -0.492138 0.984221 -1.378780 -0.121407 -0.847483 -0.469409 1.163797 0.703763 -0.051979
down -1.118083 -0.466107 0.244664 0.504349 0.056977 -1.299155 0.274908 -0.316949 0.848371 -0.043391 -1.695572 0.382289 -0.903633 -0.766818 -0.813686 -0.009966 -0.038334 0.365733 -0.957195 -1.216788 -0.937474 -0.735641 -0.329122 -0.982358 -0.142220
one 0.172138 0.551587 0.332513 -0.028526 0.005851 -0.718979 -0.227073 0.052192 0.570731 -0.390136 -1.083322 0.114723 -1.434409 0.488551 -0.639236 -0.623001 -0.386684 -0.050604 -0.638819 0.519882 0.114049 -0.659398 0.238751 -0.414083 -1.716644
not -0.380884 0.460700 -2.285711 -0.958600 -0.129994 -0.171200 -1.816844 0.009005 1.108786 -0.097488 -2.062703 -0.171374 0.515711 0.048237 -0.742235 -0.426534 0.037726 -0.802447 -0.375721 -0.167252 -0.977109 1.160105 0.617492 0.452913 -1.284966
water -0.111698 -0.012236 0.110812 0.076667 0.692064 -0.427786 -0.408610 0.985201 1.129136 -0.358246 -0.596766 0.593539 -1.190086 -0.564710 -1.380686 0.143867 -0.560201 -0.193984 -1.059820 -0.240243 -0.024625 -0.369818 0.090845 -0.456760 -0.606602
off -0.553328 -0.297393 0.516980 0.118765 0.703430 -0.860078 0.314702 0.118401 0.712258 -0.587353 -1.330625 0.048992 -1.117227 -0.746689 -0.895527 -0.071826 -0.524124 0.269013 -0.946946 -0.206752 -0.762206 -0.834415 -0.306308 -1.030384 -0.746845
about 0.331269 0.143463 -0.696184 -0.683123 -0.231715 -0.185347 0.307720 -2.014271 0.639186 -0.508379 -1.101599 -0.362878 -1.002146 0.445478 0.015252 -1.105627 -0.361781 0.750978 -1.201870 0.597170 -0.190398 -1.148242 1.716679 1.339836 -0.682474
Then 0.272734 0.802629 -0.290009 0.977142 1.184199 0.185425 -0.826588 0.231802 -0.802553 -0.558997 -0.507444 -0.758744 -0.553976 -0.740672 -0.798687 -1.140291 -1.197947 -0.066232 -1.289760 -0.814650 -0.488938 0.199240 0.536155 -0.948749 -0.301430
but 0.617676 1.130564 -0.565507 -0.643615 0.629053 -0.245206 -1.601173 0.306673 0.233599 0.228225 -1.617572 -0.236563 -0.200143 -0.253111 -0.339808 -0.356951 0.082277 0.325413 -0.635963 -0.170955 -0.031658 0.186295 0.935896 0.263220 -0.996097
very 1.016758 0.731183 -1.189847 0.057669 0.360077 -0.080288 -1.092420 -0.296916 0.852667 0.157005 -2.485960 0.537467 0.617088 0.595951 0.463238 -0.263436 0.679561 0.526823 -0.708035 -0.684812 0.513894 -0.094583 0.880466 -0.415972 -1.299153
like -0.351967 0.235112 -0.832290 -0.803868 -0.441958 0.031481 -1.525834 -0.335210 0.264468 0.067662 -1.444620 0.096834 -0.350515 0.050310 -0.526478 -0.762503 -0.176309 -0.253599 -0.421545 -0.093134 -0.477761 0.176161 0.625912 0.423849 -1.293595
take -0.262743 0.110892 -0.069214 -0.199653 -0.132179 0.354624 -0.438246 -0.280013 0.237452 -0.503212 -1.557833 0.212128 -0.530686 -0.394687 -0.940138 -0.238675 -0.520087 -0.307538 -1.159611 -0.284055 -0.414604 -0.179371 0.688842 -0.141731 -0.956020
made -0.002447 1.014589 -0.029445 0.456141 -0.038675 0.529140 -0.791602 0.057551 0.310612 -0.673390 -1.888790 0.049859 -0.624749 0.432145 -0.245380 -0.580623 -0.165802 -0.103111 -0.613847 -0.147581 -1.146800 -0.712798 0.332933 0.252510 -0.270168
over -0.504337 0.146390 0.077286 0.085688 -0.184912 -0.871335 0.316917 -0.120150 0.179663 0.053420 -1.558937 0.277680 -1.155659 -0.389322 -0.767991 0.192086 -0.365380 0.498083 -1.349590 -0.576042 -0.493133 -0.435374 -0.512609 -0.293280 -0.529609
his -0.614554 1.644345 0.619060 0.590712 0.193781 -0.926517 0.053565 -0.153809 0.008601 0.062427 -1.354134 0.231202 -0.296413 0.347943 0.089784 0.598500 -1.147487 -0.144079 -1.322067 0.314975 -0.612016 -1.674378 0.144284 0.040498 -0.291904
Once 0.427829 0.530506 -0.837784 0.675769 0.903963 -0.021501 -0.773268 0.441609 -0.374420 -0.226815 -0.553004 -0.970130 -0.377865 -0.525012 0.110362 -0.954329 -0.997770 -0.119925 -0.829831 -0.792548 -0.866023 0.145117 0.832796 -0.692035 -0.860871
could -0.992154 0.226868 -0.181736 -0.300033 0.050674 0.031891 -1.884377 -0.025318 -0.102188 0.206468 -1.837491 -0.800744 -0.171063 -1.089803 -1.148445 -0.356258 0.104521 -0.750444 -1.198837 0.074208 -0.606115 0.668549 0.815529 0.203802 -0.186762
by 0.082268 -0.088604 -0.163485 -0.578007 0.631190 -0.974212 0.260068 0.095580 0.449557 -0.379698 -1.280583 -0.185038 -0.981672 0.084525 -0.332880 0.345223 0.005042 0.705368 -0.729377 -0.498159 -0.272170 -0.075841 -0.273377 -0.027953 -1.389917
My 0.189683 1.455789 -0.747505 0.851757 -0.119493 0.233707 -1.416387 0.160467 -1.754021 0.239514 -1.349843 -0.024205 0.480900 0.741023 0.290771 0.395999 -1.461071 -1.251778 -0.614214 -0.368933 -0.188572 -2.127610 -0.436133 -0.775282 -0.479393
when 0.327638 0.925579 -0.081191 -0.239313 0.287033 -0.093819 -1.335914 0.127458 0.163110 0.267753 -1.084441 -0.912006 -0.450539 -0.517910 -0.527482 -0.252255 -0.601298 0.550835 -0.881833 -0.397923 -0.709083 -0.148629 0.823235 0.114597 -0.440037
an 0.695407 0.493941 0.560159 -0.565307 -0.058100 -0.164715 0.181961 -0.215528 0.598972 -0.956476 -0.936997 -0.011496 -0.461610 0.579841 -0.112141 -0.142522 0.004338 0.224428 -0.761705 0.069222 -1.006960 -0.676285 0.555476 0.358951 -1.209552
wanted -0.991416 0.350858 -0.022685 -0.134159 -0.067028 0.829435 -1.432942 -0.519258 -0.677191 0.178929 -1.541386 -0.046134 -0.717556 -0.507591 -0.725407 -0.283590 -0.373631 -0.369942 -1.066606 0.072287 -0.434781 0.136349 0.922450 0.969727 -0.587023
are 0.305592 0.716974 -1.145156 0.863464 -0.218213 -1.019518 -1.742057 -0.229699 0.538450 0.492872 -1.089806 0.526981 0.040623 -0.635321 0.048786 -0.300252 0.046749 0.814552 -0.557626 0.212772 -0.739953 0.302638 0.900449 0.353951 -0.969343
He -0.399961 1.844464 -0.723191 1.184054 1.571008 0.583848 -0.374887 0.225775 -0.280692 0.452560 -1.051855 -0.037326 0.106797 -0.506836 -0.204055 -0.596518 -0.293327 0.289438 -1.141325 -0.055134 -0.579406 -0.504442 0.690317 0.153785 0.064394
do -0.480909 0.687633 -1.222561 -0.990218 -0.382556 0.041332 -1.387262 0.083889 0.345795 0.421985 -1.433621 -0.365252 -0.491009 0.144791 -0.605913 -0.262494 -0.182216 -0.524489 -0.509874 0.211631 -0.706344 0.473789 1.008337 0.284769 -1.325884
there 0.784433 0.803671 -0.414771 0.258749 -0.273693 -0.678481 -1.269255 -0.222427 0.778018 0.440779 -1.234642 -0.471008 -0.455788 -0.667493 0.001295 -0.415471 -0.178478 0.261153 -0.915112 -0.189283 -1.191785 -0.340813 1.080535 0.119969 -1.132137
or 0.228454 0.025729 -0.475806 -0.362262 -0.342175 -0.285162 -1.194412 -0.270359 0.428052 -0.326066 -0.784808 0.300268 -0.656980 -0.117351 -0.376858 -0.255743 -0.038261 -0.234744 -0.585485 0.109833 -0.444218 0.429748 0.473542 0.251530 -0.931100
She -0.393366 1.323039 -0.765036 0.988117 1.273352 0.906224 -0.597993 0.093870 -0.257348 0.260966 -0.702047 -0.320759 0.263144 -0.488096 -0.089503 -0.640523 -0.501243 0.293975 -1.652275 -0.095358 -0.723576 -1.063431 0.734752 0.001423 0.142439
started -0.114362 0.420214 -0.160928 0.157244 0.776227 -0.340449 -0.092549 0.060776 -0.246370 0.115491 -1.242508 -0.080764 -0.754386 -0.442092 -0.541977 -0.046322 -0.067395 0.781296 -0.730448 -0.808848 -0.316614 0.074483 0.262187 -0.492175 -0.541383
this 0.111374 0.711610 -0.591726 -0.494503 -0.241313 -0.459933 -0.419427 0.445310 0.894191 0.187722 -0.774288 -0.628975 -0.754098 0.436085 -0.028292 -0.553780 -0.116383 -0.451485 -0.466299 -0.309410 -0.243575 -0.487216 0.792610 -0.120772 -1.609505
where -0.172931 0.279608 0.438584 -0.326193 -0.151341 -0.515885 -1.018082 -0.038020 -0.001927 0.083825 -1.025011 -0.291861 -0.959011 -0.782007 -0.459801 -0.052878 -0.372199 0.405112 -1.133286 -0.207612 -0.496265 -0.062822 0.553836 0.434082 0.000103
can -0.821684 0.525537 -0.489165 -0.209222 -0.604542 -0.365011 -1.887407 0.047037 0.088196 0.184828 -1.421829 -0.205404 -0.421967 -0.868295 -0.856801 -0.304641 0.335630 -0.776464 -0.538163 0.152161 -0.640733 1.025368 0.287176 -0.219569 -0.320651
just -0.327400 0.883191 -0.540309 -0.246853 0.450585 -0.045386 -0.772096 -0.467290 0.091378 -0.228186 -1.550481 0.277191 -0.244340 -0.350227 -0.800737 -0.585589 0.308074 0.120327 -0.595684 0.031514 -0.292342 0.204796 0.614119 0.083178 -0.961251
few 1.426457 -0.375561 -0.413453 0.436020 -0.127989 -0.413368 0.317114 -1.195881 0.589005 -0.088256 -0.401124 0.098840 -1.254403 0.658025 0.009787 -0.812221 0.315341 0.406845 -1.037557 0.151032 0.688893 -1.046091 1.242050 0.620886 -0.933677
each -0.014005 0.126602 0.541277 0.696467 0.226581 -1.222102 0.254804 -0.221317 0.388786 -0.528468 -0.419948 -0.021059 -1.525332 0.381978 -0.676374 -0.800365 -0.609883 0.049660 -0.509564 0.437961 -0.029977 -0.411225 0.309281 0.265846 -0.857848
what -0.328929 0.571538 -0.219672 -0.749798 -0.339228 0.058239 -1.277798 -0.838704 0.384042 0.035922 -0.747441 -1.003475 -0.520947 -0.522678 -0.232909 -0.667832 -0.561866 0.711956 -0.910993 0.647901 -0.331863 -0.163552 0.980964 1.149019 -0.647969
will -1.145845 0.484146 -0.962225 -0.105993 -0.265738 -0.011133 -1.789533 0.337413 -0.068279 0.206982 -1.567007 -0.092758 -0.296870 -0.934923 -0.859455 -0.359226 0.309241 -0.653911 -0.489645 0.247991 -0.674001 0.594985 0.607865 0.162008 -0.495845
food -0.282877 0.189875 0.187748 0.435002 -0.415415 -0.803385 -0.863777 0.199782 0.025896 0.106450 -0.437834 0.540935 -1.018057 -0.295729 -0.546328 -0.265328 -0.583767 0.477519 -0.653186 -0.015859 -0.212115 -0.505748 0.752215 -0.268421 -0.634552
because 0.237900 0.867209 -0.152720 -0.519506 0.004060 -0.044678 -1.365227 0.210927 0.606991 0.367866 -1.309790 -0.526573 -0.416659 -0.293729 -0.314452 -0.111501 -0.047737 0.252461 -0.508073 -0.085738 -0.490755 -0.022049 0.623491 0.328644 -0.778295
around -0.401111 -0.165572 0.145979 -0.094213 -0.051713 -1.082299 0.107874 -0.195721 0.346303 0.214537 -1.322862 0.160843 -0.798135 -0.060737 -0.546469 -0.142773 0.003210 -0.092439 -1.082385 -0.570868 -0.330833 -0.604863 -0.121778 -0.268070 -0.459374
also -0.825867 1.210819 -0.536518 0.715805 1.133836 0.083032 -1.106873 -0.378648 -0.497192 -0.184039 -1.401896 0.495483 -0.055096 -0.684977 -0.926431 -0.899200 0.340874 0.131478 -0.301854 0.069115 -0.376005 0.217460 0.236606 0.686179 -0.492839
it. -0.154455 0.473042 -0.067520 0.274923 0.825761 -0.393980 -0.083375 -0.067250 0.203042 -0.727586 -1.101767 -0.051779 -0.638976 -0.077114 -0.376070 -0.488605 -0.664809 -0.710027 -0.961765 -0.280012 -0.768522 -0.092473 0.289025 -0.432851 -0.796165
clean -0.460451 0.144713 0.036799 -0.222883 0.173841 -0.445465 -0.345835 0.519238 0.528209 -0.497118 -1.189240 0.226818 -0.549942 -0.144996 -0.792425 0.035564 -0.838668 -0.437472 -0.805522 -0.126845 -0.061964 -0.140305 0.092656 -0.473532 -0.515808
did -0.484249 1.196264 -1.587302 -0.548037 0.133225 -0.053171 -1.378953 0.478018 0.391771 0.403906 -1.276629 -0.576699 -0.149403 -0.178419 -0.469065 -0.744715 -0.015618 -0.071399 -0.386960 -0.091630 -0.471537 0.067924 0.811630 0.351020 -1.255746
see -0.478083 0.055375 0.129098 -0.971542 -0.514165 -0.488895 -0.965226 -0.889514 0.340578 -0.004067 -1.495953 -0.398761 -0.265703 -0.727876 -0.458402 -0.457245 -0.382092 -0.400470 -1.402861 0.045495 -0.738770 -0.138350 0.624316 0.611117 -0.116424
looked -0.276259 0.249671 -0.511048 0.006787 0.206814 -0.160194 -0.809962 0.039666 0.065783 0.694913 -1.752404 -0.263165 -0.268517 -0.126495 -0.428236 -0.625852 0.418208 0.084419 -0.799346 -0.747952 -0.095180 -0.777677 0.422320 -0.605726 -0.590262
you -0.465522 0.938482 -0.605089 0.385783 -0.421400 -0.072690 -2.118631 -0.468356 0.413419 0.021194 -0.710459 -0.790043 -0.224610 -1.044345 -0.383643 -0.376567 -0.028838 -0.184194 -0.267059 -0.442345 -1.115627 1.141778 0.841493 0.537462 -0.489813
other 0.330778 0.480590 0.115822 0.229341 -0.363955 -0.838986 -0.526740 0.452391 0.041838 0.033656 -0.448077 0.324647 -1.118767 0.467809 -0.181285 -0.768099 -1.145534 0.030001 -0.567447 0.620149 -0.105001 -0.377434 0.127379 0.167723 -1.256426
before 0.667874 0.174364 0.016235 -0.626226 0.433163 -0.625676 -0.676893 0.094935 -0.071585 0.180028 -1.051285 -0.442547 -0.908434 -0.146871 -0.467685 0.115450 -0.283842 0.861389 -0.910158 -0.432053 -0.295256 -0.031491 0.506870 0.133522 -0.838986
first -0.881298 1.795206 -0.501499 0.374822 0.109401 0.309573 -0.211047 0.638216 -0.245251 0.590352 -1.302904 -0.291344 -1.063100 0.710393 -0.470993 -0.531576 -0.070342 0.454641 -0.246588 0.049068 0.435005 -0.185339 0.604389 -0.517627 -0.847315
clothes -0.426081 0.130490 -0.077030 0.402512 -0.163934 -1.310298 -0.743748 0.491524 0.081353 -0.238301 -0.223602 0.155089 -0.743617 -0.607583 -0.842016 0.017221 -0.983285 0.449446 -0.505536 0.052160 -0.147913 -0.235259 -0.225018 -0.598948 -0.241965
new -0.137156 0.409252 0.777135 0.352017 -0.485282 -0.339389 -0.298536 -0.004197 0.227707 -0.341186 -0.556882 0.715825 -0.914892 0.006067 -0.487411 -0.335611 -0.867318 0.001495 -0.575117 -0.266848 0.183597 -0.852283 -0.035239 -0.377635 -0.749430
told -1.130396 0.886968 -0.436945 0.566221 0.321226 0.486469 -0.405158 -0.407258 0.459469 0.330502 -1.042927 -0.400758 0.038539 -0.383604 -0.134844 -0.160799 -0.682441 0.232287 -1.656242 0.660091 -0.230210 -1.066268 1.035479 1.300187 0.300401
while 0.301629 0.234836 0.009692 -0.028983 0.234684 -0.705306 -0.579463 -0.131660 0.216810 0.324446 -0.849461 -0.055379 -0.726667 -0.114069 -0.355278 -0.146283 -0.219937 0.479961 -0.966596 -0.476657 -0.405542 -0.420802 0.569936 0.080359 -0.496461
hot 0.226083 0.100030 -0.207159 0.302097 0.276655 -0.537818 -0.341569 1.079387 0.732112 -0.487071 -0.069153 1.131660 -0.445016 0.501449 -0.842351 0.456858 -1.225720 -0.399570 -0.348310 -0.040826 0.466315 -0.670073 -0.145367 -0.052830 -1.354237
if -0.066670 0.795919 0.124098 -0.759581 -0.301614 0.002950 -1.691347 -0.953997 0.946141 0.110614 -1.056727 -1.217917 0.204276 -1.194883 -0.140829 -0.695630 -0.446064 0.319440 -1.219634 0.462967 -0.982275 -0.233483 0.896660 0.997086 -0.049835
little 0.773788 0.370294 -0.226617 0.732912 -0.203109 -0.312344 -0.551150 -0.769777 1.036829 -0.062288 -0.746544 1.017723 -0.691163 0.473851 -0.318837 -0.049715 0.062787 -0.158591 -1.160098 -0.191461 1.121191 -0.606539 0.299604 -0.741701 -1.023766
good 0.481683 0.223032 -0.274858 -0.225918 -0.355740 -0.114497 -0.912563 -0.256402 0.387834 0.072554 -1.372584 0.332419 -0.437227 0.709286 0.016212 -0.544627 -0.104786 -0.089300 -0.627840 -0.236876 0.141713 -0.427789 0.808122 -0.056924 -1.098576
needed -0.585239 0.398220 -0.416018 -0.231618 -0.115464 0.471461 -1.216914 -0.231334 -0.343444 0.204843 -1.243088 -0.123835 -0.729419 -0.503223 -0.857452 -0.253542 -0.162905 -0.166024 -0.726787 0.109889 -0.375231 0.124112 0.666494 0.268646 -0.744004
day 0.435277 0.426702 0.013748 -0.168814 0.019906 0.049094 -0.752050 0.549582 -0.444535 0.701257 -1.190833 -0.154016 -1.227991 0.711255 -0.198189 -0.631679 -0.152737 0.454967 -0.830039 0.178525 0.191695 -0.106380 0.269238 -0.083422 -1.372296
until 0.495985 0.557558 0.107170 -0.137969 0.181389 -0.722686 -0.432750 0.219484 0.874206 0.540741 -0.671073 -0.317713 -1.011704 -0.554887 -0.512909 -0.114414 0.076972 0.357342 -0.626598 -0.502984 -0.834164 -0.336638 0.408252 0.088452 -0.373096
car -0.434522 0.471883 0.457243 0.146880 0.307697 -0.630871 -0.194962 0.148924 -0.651136 -0.005331 -1.087005 0.268462 -0.701928 -0.554198 -0.713987 -0.045817 -0.379982 0.241377 -0.871487 -0.711068 -0.220507 -1.000139 -0.114083 -0.771183 -0.091672
which 0.119666 0.785967 -0.191688 -0.044102 -0.122621 -0.159708 -0.901865 0.295236 0.198411 0.238021 -0.751682 -0.054338 -0.690790 -0.074246 -0.204381 -0.193107 -0.066372 0.192905 -0.691731 0.188393 -0.355754 -0.468742 0.623444 0.068116 -0.558728
set -0.237785 -0.021997 0.217034 0.123195 0.361619 -0.438278 -0.130336 0.017661 0.481147 -0.244357 -1.031217 0.133725 -0.745845 -0.348668 -0.825978 -0.181559 -0.555532 0.143588 -0.614665 -0.429717 -0.255859 -0.261871 -0.020689 -0.451490 -0.500419
turned -0.333213 0.352278 0.300229 0.390431 0.904060 -0.235298 0.320099 0.808120 0.359055 -0.435894 -0.336024 0.320040 -1.058768 -0.809263 -0.682859 0.256539 -0.325006 0.066454 -0.505499 -0.629025 -0.457062 -0.156180 -0.260171 -1.306989 -0.319601
placed 0.001537 0.312210 0.337186 0.708046 0.729285 -0.818936 -0.033124 -0.079696 0.559266 -0.611419 -0.412983 0.248134 -1.009505 -0.484623 -0.890320 -0.262415 -0.570633 0.228600 -0.425468 -0.113393 -0.155009 -0.290552 -0.116798 -0.726724 -0.394129
through -0.346255 -0.464947 0.441547 -0.304699 -0.092020 -0.816376 0.439437 -0.372541 0.314927 -0.016056 -1.102627 -0.014633 -0.891215 -0.292161 -0.748933 -0.119436 -0.103130 0.127981 -0.821406 -0.921331 -0.292086 -0.418287 -0.428165 -0.251186 -0.335491
going -0.352027 0.152939 -0.660495 -0.361547 -0.195287 -0.007531 -0.722988 -0.274172 -0.243242 0.115152 -1.733762 0.125853 -0.226974 -0.482550 -0.417120 0.163737 -0.264895 0.039454 -0.796258 -0.493772 -0.396590 0.480253 0.665017 -0.162285 -1.220383
two 0.454199 0.045722 0.127284 0.197870 -0.200825 -0.528502 0.291555 -0.505881 0.331389 -0.776285 -0.388568 0.396266 -1.197749 0.024056 -0.622144 -0.349666 -0.312687 0.424434 -0.524950 0.387933 0.010538 -0.588077 0.044547 0.250370 -1.013666
ready 0.125540 -0.234860 -0.232926 -0.429088 0.017726 -0.240266 -0.428463 -0.257377 -0.218290 0.216449 -1.777286 0.211463 0.058025 -0.405699 -0.874225 0.010317 -0.339672 0.151573 -1.244719 -0.453218 -0.534063 0.045166 0.746853 -0.224129 -0.624291
him -0.948234 0.272733 0.321710 -0.032750 0.383570 0.167618 0.223790 -0.880960 1.028639 -0.367551 -1.235720 -0.191363 0.090429 -0.490830 -0.649490 0.142790 -0.485557 0.042589 -1.408782 0.434583 -0.536693 -1.037337 0.656319 0.945284 0.055039
walked -0.544356 0.389836 0.160665 0.600554 0.350528 -0.297520 0.314119 -0.137523 -0.613196 0.278096 -0.984323 0.166490 -0.535888 -0.838341 -0.562038 -0.282419 -0.256359 0.535667 -1.002426 -0.936246 -0.353824 -0.547185 -0.132411 -0.560472 0.264561
how -0.145152 0.638812 -0.213855 -0.824066 -0.397730 0.099709 -1.061681 -1.213494 0.765476 -0.171013 -1.061450 -0.846153 0.235045 -0.425905 0.019542 -0.450623 -0.412171 0.393563 -1.211342 0.001081 -0.309166 0.015970 1.070104 1.193506 -0.397504
home -0.207551 -0.261738 0.202806 -0.393764 0.211641 -0.481352 0.041190 -0.343715 -0.414522 0.011254 -1.350412 -0.182277 -0.990676 -0.500655 -0.973988 0.440718 -0.098851 0.706782 -1.096739 -1.071546 -0.540711 -0.747128 0.158811 -0.836494 -0.497962
room -0.452000 0.731075 0.381618 0.044003 -0.170873 -0.290691 0.053458 0.305335 -0.186899 0.328077 -0.809487 0.744573 -0.580755 0.168547 -0.371262 -0.374649 -0.222131 -0.302463 -0.805985 -0.308965 -0.021824 -0.468889 0.014770 -0.691211 -0.103324
need -0.694608 0.130259 -0.763629 -0.531859 -0.779746 0.214364 -1.503517 -0.420216 -0.120506 -0.162339 -1.253271 0.198888 -0.339524 -0.478660 -0.707611 -0.425992 0.066657 -0.617469 -0.362620 0.077453 -0.552135 0.747941 0.302929 0.553794 -0.750245
found -0.073828 0.497249 0.155812 0.327831 0.584083 -0.227384 -0.380053 -0.560719 0.010369 -0.550583 -0.791581 0.242243 -0.582475 -0.094736 -0.437749 -0.698052 -0.233242 -0.140352 -0.467267 -0.260282 -0.087108 -0.502616 0.569943 0.172852 -0.744469
asked -0.689240 0.748805 -0.090772 0.171030 0.063425 0.357995 -0.503210 -0.651785 0.097889 0.441963 -0.948586 -0.491080 0.169231 -0.485351 -0.214801 -0.178166 -0.379449 -0.015763 -1.566061 0.370895 -0.330143 -1.028476 0.781195 1.227298 0.532624
really 0.201625 0.743456 -0.966050 0.093516 0.417645 0.152791 -1.209926 -0.407160 0.193075 0.167241 -1.751999 0.126087 0.294691 0.020218 -0.063083 -0.441024 0.674970 0.211552 -0.514749 -0.320175 0.202310 0.053359 0.745339 -0.015423 -0.875323
next -0.112440 0.661763 -0.105772 0.317914 -0.565485 -0.190826 0.161497 0.541907 0.431933 0.429954 -0.868312 0.293373 -1.309809 0.712782 0.120329 -0.237087 -0.353230 0.019424 -0.759973 -0.292150 0.103274 -0.396539 0.488929 -0.294624 -0.984565
minutes 1.265407 -0.327418 0.156283 -0.490829 0.311535 -0.196976 0.772730 -0.437629 -0.219616 0.151803 -0.216069 -0.052852 -1.184051 0.019439 -0.254283 -0.871197 0.451196 0.143314 -0.897281 0.304452 0.377174 -0.328315 0.598789 0.578291 -0.324589
nice 0.323569 0.211584 -0.244200 0.030386 -0.191239 -0.121283 -0.783003 -0.049585 0.432437 -0.073456 -1.278554 0.683408 -0.357817 0.519897 -0.132575 -0.348764 -0.090123 -0.012768 -0.700025 -0.069275 0.379704 -0.322361 0.553669 -0.080672 -0.684697
came -0.150510 0.475529 -0.272521 0.486796 -0.071720 0.019503 -0.229334 0.341187 -0.184687 0.835209 -0.797640 -0.177238 -0.361435 -0.688165 -0.282871 0.065255 -0.127076 0.872603 -0.875640 -0.525929 -0.404968 -0.794719 0.570147 -0.439281 0.042546
let -0.510071 -0.122380 0.242574 0.177448 0.470796 -0.155635 -0.173992 -0.090434 0.855734 -0.058109 -0.844415 -0.173435 -0.489305 -0.596633 -0.938682 -0.245894 -0.371560 -0.870646 -0.831575 0.043114 -0.484400 0.009598 0.430171 0.131979 0.361490
more 0.925972 -0.107830 -0.458247 -0.520604 0.007426 -0.232889 -0.356454 -0.231053 0.528919 -0.207555 -0.761249 0.036912 -0.858451 -0.044891 -0.528569 -0.335969 -0.176744 0.323775 -0.542388 0.495496 0.113558 -0.121999 0.316919 0.088883 -1.063853
us -0.973556 -0.071394 -0.156510 0.767468 -0.075722 -0.658504 0.075535 -1.036142 0.357241 -0.033439 -1.141101 -0.018164 -0.601597 -0.221477 -0.124665 -0.329617 -0.646439 0.527461 -0.976778 0.288851 -0.531816 -0.461513 1.055930 1.012772 -0.537220
top -0.012520 0.533141 0.870730 0.036661 0.215134 -0.875153 0.538355 0.514246 0.101778 -0.622692 -0.425903 0.156776 -1.444862 0.022075 -0.519783 -0.396073 -0.341056 0.191675 -0.262006 0.060630 -0.190739 -0.085316 -0.688960 -0.519586 -0.727207
left -0.222292 0.666098 0.218138 0.134931 0.117221 -0.532263 -0.389341 0.057509 -0.395807 0.059705 -0.855471 0.181783 -0.719535 -0.238534 -0.396475 -0.247762 -0.352815 0.234376 -0.591121 -0.204866 -0.216519 -0.135091 -0.078873 -0.328066 -0.674287
way 0.197870 0.390848 0.011994 -0.279555 -0.304205 -0.194600 -0.549111 0.260782 0.056227 0.336104 -1.428921 -0.187440 -0.709335 0.054750 -0.254665 -0.221193 -0.182392 0.182231 -0.566612 -0.430407 -0.603338 -0.234468 -0.141797 -0.445495 -0.757982
any 0.013379 0.299081 -0.295284 -0.383460 -0.380700 -0.461328 -0.686032 -0.463584 0.725725 -0.503388 -0.734587 0.376691 -0.650235 0.099796 -0.293510 -0.425200 -0.646804 -0.188677 -0.364694 0.263053 -0.504958 0.346465 0.265432 0.381241 -1.030740
hair 0.024045 0.453069 0.240618 -0.193018 0.415576 -0.143955 -0.474388 0.400706 0.153776 0.066678 -0.692729 -0.074407 -0.330148 -0.245736 -0.322177 0.049346 -0.403336 -0.525372 -0.533367 -0.460331 -0.290188 -1.083649 -0.002418 -0.818897 0.242166
picked -0.542164 0.092587 -0.223575 0.246301 0.572778 -0.037753 -0.266738 -0.190199 0.120019 -0.300475 -1.222182 0.152221 0.069228 -0.548094 -0.744269 -0.386735 -0.536409 0.446336 -0.623692 -0.227190 -0.039564 -0.797671 0.243463 -0.284805 -0.586304
their -0.029719 0.506306 0.291522 0.362237 -0.140042 -1.230467 -0.114537 -0.332017 -0.344256 -0.239507 -0.649158 0.218687 -0.661565 -0.118960 -0.138232 -0.018194 -0.834997 -0.170894 -0.810385 -0.012121 -0.732959 -0.596789 0.218233 -0.098984 -0.439661
after 0.637102 0.254029 -0.076221 -0.175877 0.278957 -0.313923 -0.594719 -0.094152 0.129379 -0.225195 -0.710059 -0.478701 -0.623230 0.157813 -0.249349 -0.303039 -0.265980 0.332714 -0.918187 -0.137555 -0.285922 -0.203445 0.895322 0.181855 -0.534261
This 0.468263 0.920542 -0.777522 0.355206 0.184719 0.544608 -0.189651 0.803813 -0.004713 0.066991 -0.189162 -0.278345 -0.176025 0.365968 0.541294 -0.602785 -0.318792 -0.521807 -0.451556 -0.115530 -0.509250 -0.388914 0.793887 -0.490467 -0.900621
right 0.252715 0.117560 0.219235 -0.170777 -0.326911 -0.526257 0.130543 0.282161 0.310095 0.009662 -0.731220 0.170797 -0.648955 -0.198268 -0.408466 -0.088019 -0.454928 0.234591 -0.465860 -0.183231 -0.264185 -0.183147 -0.246855 -0.833207 -0.691895
place 0.031077 0.325393 0.208939 0.166113 0.166274 -0.539398 -0.455057 -0.002858 0.199027 0.006547 -0.673393 0.125987 -1.035918 -0.121203 -0.615758 -0.171602 -0.264633 -0.019321 -0.610370 -0.197439 -0.100674 -0.198391 0.157248 -0.307266 -0.475573
bag 0.156480 0.346839 0.447189 0.012878 -0.188649 -0.491852 -0.268810 0.274842 0.424919 0.005630 -0.389348 0.136182 -0.637883 -0.330495 -0.806365 -0.198063 -0.062316 0.190231 -0.302533 -0.037132 0.350882 -0.404904 -0.767754 -0.807657 -0.265744
They -0.338868 0.933830 -0.653479 1.040649 0.618151 -0.247174 -0.800652 -0.309705 -0.558609 0.256288 -0.860133 0.166684 0.281152 -0.630577 -0.031367 -0.867568 -0.554917 -0.022088 -0.697371 0.010515 -0.678865 0.021369 0.693671 0.185408 -0.108599
paper -0.211526 0.175654 0.214522 0.150686 0.214529 -0.261058 -0.194085 0.189753 0.459148 -0.389461 0.055692 0.352994 -0.954954 -0.087743 -0.523216 0.186514 -0.271496 -0.001280 -0.261041 -0.004388 0.457544 -0.333478 -0.089256 -0.253226 -0.329342
use -0.231396 0.320799 -0.047857 -0.314939 -0.071052 0.069003 -0.502508 -0.223167 0.122759 -0.598042 -0.824281 0.220911 -0.360033 -0.293111 -0.801352 -0.107419 -0.188867 -0.617354 -0.416841 -0.127939 -0.297557 0.383651 0.248839 0.306110 -0.682082
pulled -0.240052 0.232344 0.310856 0.136076 0.589833 -0.144038 0.312452 0.220765 0.033716 -0.484290 -0.598931 -0.173187 -0.354440 -0.938630 -0.981183 -0.076056 -0.388589 0.318930 -0.524708 -0.340618 0.065195 -0.634703 -0.293381 -0.561883 -0.214409
things -0.268323 -0.038605 -0.480253 -0.237283 -0.286380 -0.457469 -1.272998 -0.123863 0.131190 0.105541 -0.663045 -0.137526 -0.860822 -0.090177 -0.532862 -0.291750 -0.581584 0.548110 -0.607649 0.285874 -0.139792 -0.066509 0.265446 0.234448 -1.006601
store -0.699343 0.016078 0.756831 -0.285420 -0.023284 0.254661 0.002634 -0.017318 -0.702137 0.066408 -1.096940 0.458919 -0.572098 -0.475038 -0.640348 -0.089089 -0.024644 -0.274546 -0.635927 -0.541468 0.080629 0.289201 -0.019488 -0.220765 0.315532
front -0.059264 0.444394 0.861004 -0.150371 -0.176542 -0.725987 0.692507 0.473575 -0.113676 -0.272662 -0.466952 0.165358 -0.952141 -0.020288 -0.262374 -0.397959 -0.473853 -0.380981 -1.019783 0.021606 -0.191629 -0.731414 -0.598763 -0.287983 -0.377112
said -0.519623 1.067123 -0.269086 0.409606 0.223952 0.281310 -1.058902 -0.225738 0.432035 0.511563 -0.602109 -0.355053 -0.169066 -0.284947 0.100399 -0.087944 -0.210907 0.502871 -0.834810 0.200651 -0.424115 -0.709656 0.884357 0.763176 0.009162
cut -0.114893 0.154667 0.195638 -0.122593 0.530293 -0.190154 -0.024990 0.320188 0.236673 -0.141876 -0.586593 0.100191 -0.812786 -0.386628 -0.700037 0.056799 -0.407294 -0.165062 -0.474085 -0.253704 -0.189605 -0.510271 -0.031068 -0.601863 0.110886
small 0.455213 0.215768 0.572322 0.337310 -0.262563 -0.455156 -0.133707 -0.106020 0.320825 -0.525759 -0.363810 0.700604 -0.978265 0.303253 -0.428599 -0.349701 -0.146384 -0.256541 -0.658343 -0.225798 0.310199 -0.171008 -0.105208 -0.176573 -0.611335
everything -0.164998 0.332768 -0.411829 0.349013 0.306095 -0.239353 -0.809305 -0.216508 0.828131 -0.253016 -0.731923 -0.805411 -0.726500 -0.784381 -0.600182 0.037138 -0.314625 0.696094 -0.294523 0.102021 -0.695041 -0.362067 0.392872 -0.385805 -0.622879
start -0.177156 0.077295 -0.057807 -0.357595 0.145473 -0.193963 -0.203007 0.014868 0.173657 -0.118263 -0.915180 -0.015297 -0.364671 -0.168133 -0.521819 0.007165 -0.111962 -0.160682 -0.517637 -0.523236 -0.237027 0.594233 0.074123 -0.128234 -0.379159
much 0.841760 0.599375 -0.253035 -0.734775 -0.486715 -0.000040 -1.349441 -0.373113 0.589886 0.077391 -0.706395 -1.004537 0.037591 -0.099108 0.009870 -0.197846 -0.208251 0.226065 -0.813383 -0.488897 -0.158402 0.437217 0.686497 0.456129 -1.024696
used -0.050663 0.582152 0.123887 -0.020295 0.306544 0.006454 0.038161 -0.165089 0.050516 -0.705900 -0.637931 0.356033 -0.403861 -0.142700 -0.629539 0.031026 0.033023 -0.180931 -0.359006 -0.272571 -0.106651 -0.044866 0.004765 0.168798 -0.655527
friend -0.185644 0.700018 -0.357683 0.350418 -0.003495 0.398206 -1.035019 0.211242 -0.423499 0.298958 -1.009791 0.210577 -0.008694 0.187941 -0.209272 -0.101891 -0.228513 0.045555 -0.791688 0.265936 -0.048998 -0.980893 0.324762 0.410646 -0.130025
done 0.375765 0.555352 -0.418968 -0.365371 0.639075 -0.426144 -0.587384 0.283686 0.191324 0.044969 -1.222744 -0.573953 0.152081 -0.135332 -0.176455 -0.253169 -0.136955 0.707541 -0.596326 -0.686226 -0.226950 0.349382 0.601716 -0.484456 -0.897154
family 0.040421 0.666886 -0.203830 0.257578 -0.083987 -0.147901 -0.925859 0.179116 -0.428258 0.381273 -0.841778 0.215267 -0.260497 0.198481 -0.143373 -0.058219 -0.398183 0.295245 -0.588591 0.173837 -0.218879 -0.873926 0.400488 0.250404 -0.423395
opened -0.487687 0.524811 0.316138 0.372971 0.615915 -0.196733 0.129185 0.415525 0.044168 -0.297955 -0.498127 -0.089598 -0.523529 -0.449322 -0.709931 -0.297007 -0.301633 -0.041732 -0.625896 -0.293091 0.122083 -0.488944 -0.328622 -0.405861 0.046251
friends -0.235371 0.389736 -0.242831 0.368284 0.041518 -0.321003 -1.032486 -0.030333 -0.847050 0.225921 -0.973731 0.362217 -0.456875 0.103629 -0.355363 -0.037074 -0.619280 0.390440 -0.810116 0.179588 0.079893 -0.683827 0.156593 0.338268 -0.559750
people -0.099555 0.160971 -0.425087 0.274693 -0.080528 -0.630174 -1.133271 0.010375 -0.017238 0.500547 -0.480455 -0.049478 -0.649811 -0.188919 -0.129031 -0.753320 -0.290969 0.155466 -0.648592 0.526622 -0.156978 0.210308 0.333036 0.471483 -0.800090
work -0.074054 0.091136 -0.173864 -0.575926 0.180026 -0.588404 -0.566732 0.102115 -0.083721 0.073916 -1.074544 -0.266487 -0.619022 0.091271 -0.273873 -0.069272 -0.159012 -0.095934 -0.856235 -0.243469 -0.327361 -0.311400 0.462754 -0.214746 -0.914370
table -0.215105 0.190409 0.369051 0.014502 -0.025941 -0.585997 -0.257117 0.403439 0.320986 0.033375 -0.868441 0.380009 -0.905989 -0.001237 -0.488928 -0.139104 0.036051 0.106470 -0.647687 -0.338185 -0.129125 -0.434338 0.081138 -0.363220 -0.173850
want -0.802854 0.185269 -0.971580 -0.679428 -0.615379 0.451669 -1.249071 -0.462610 0.167556 -0.077435 -1.092001 -0.125289 -0.066665 -0.326646 -0.664942 -0.180057 -0.025495 -0.696725 -0.140380 -0.527555 -0.717351 1.042159 0.134305 0.742855 -0.688944
house -0.082976 0.419423 0.192243 -0.157401 -0.026027 -0.417356 -0.472162 0.292320 -0.095805 0.115924 -1.024781 0.126278 -0.562891 0.053374 -0.175437 0.092156 -0.226909 -0.062353 -0.848087 -0.325918 -0.353005 -0.646070 0.232781 -0.185479 -0.380285
pan -0.081407 0.153861 0.663836 0.182634 0.269590 -0.574219 0.066960 0.287864 0.507196 -0.204080 -0.143639 0.527849 -0.909616 -0.366552 -0.659775 -0.051102 0.063733 -0.161093 -0.341704 -0.453915 0.204225 -0.491398 -0.360450 -0.948313 0.013640
door -0.088445 0.347998 0.571588 -0.026251 0.275336 -0.389984 0.045309 0.818119 0.115431 -0.207088 -0.602181 0.069375 -0.937616 -0.270507 -0.779743 -0.011930 -0.043838 0.219670 -0.913866 -0.173525 0.119970 -0.274284 -0.677643 -0.192192 -0.038592
find -0.220826 0.170051 -0.096716 -0.376856 -0.025148 0.165662 -0.441412 -0.446704 0.347100 -0.432864 -0.973866 0.099946 -0.229787 -0.276086 -0.718340 -0.213787 -0.191738 -0.422844 -0.428410 -0.013563 -0.345677 0.130106 0.448489 0.193327 -0.645877
sat -0.589245 -0.043436 -0.103203 0.799375 0.394073 -0.411880 -0.154726 -0.389927 -0.017125 0.193344 -1.091766 0.368772 -0.183238 -0.684964 -0.603211 -0.350548 0.142779 0.448729 -0.473135 -0.846853 -0.303442 -0.412470 0.023458 -0.510799 0.360684
There 0.501508 0.921555 -0.760392 1.095407 0.025622 -0.106703 -0.670329 0.034296 -0.114036 0.337291 -0.308782 0.369874 -0.015854 -0.217653 0.412029 -0.638775 -0.267018 -0.050437 -0.515051 0.303190 -0.773921 -0.214997 1.000369 0.072337 -0.782481
gas -0.112600 0.202984 0.455494 -0.269963 -0.496471 -0.226847 0.327025 0.875246 0.073791 -0.252293 0.190026 0.265859 -1.071848 -0.212220 -0.588203 0.212298 -0.562791 -0.251701 -0.201816 -0.393335 0.147188 -0.422325 -0.633709 -0.806668 0.005826
drove -0.498247 0.199450 0.185486 0.390581 0.369355 -0.258189 0.285947 -0.372415 -0.797701 0.096982 -0.836607 0.260240 -0.469900 -0.527198 -0.534009 0.135584 -0.283427 0.382349 -0.771485 -0.843830 -0.364946 -0.532325 0.052382 -0.260714 0.119722
big 0.459522 0.373620 0.183831 0.183342 -0.389739 -0.206942 -0.484242 -0.083164 0.348315 -0.219055 -0.697980 0.544423 -0.525673 0.181825 -0.057656 -0.331169 -0.178522 -0.088086 -0.531602 -0.295913 0.383651 -0.242357 0.177490 -0.270014 -0.758904
away -0.009562 -0.384278 -0.183461 0.377572 0.094268 -1.141555 -0.094800 -0.450575 0.869741 -0.370615 -0.511570 0.062175 -0.840657 -0.663455 -0.900739 0.174137 -0.310547 0.467854 -0.193746 -0.127102 -0.656143 -0.325604 -0.012709 -1.158686 -0.389450
been 0.174766 0.692992 -0.486546 -0.313155 -0.109381 0.491784 -0.563280 -1.029401 0.187287 -0.493845 -1.327787 0.815870 -0.206837 -0.081314 -0.197916 0.262946 0.270346 0.894612 0.075838 -0.056178 -0.280265 0.688431 0.553097 0.249914 -1.337521
has 0.117294 1.126043 -0.452476 0.404568 -0.159640 0.214173 -0.851580 -0.148381 0.530338 0.192719 -0.878251 0.118758 -0.169742 -0.304444 0.038108 0.062165 0.331566 0.471241 -0.206174 0.275242 -0.479965 -0.090173 0.926767 0.180185 -0.556289
shower -0.147990 0.287760 0.510408 0.019924 0.160512 -0.234849 -0.017422 0.582833 0.289492 -0.325537 -0.351474 0.326983 -0.774882 -0.166282 -0.672924 0.068213 -0.323370 -0.127007 -0.413353 -0.281698 0.135140 -0.533970 -0.326599 -0.454373 -0.069546
look -0.202913 -0.454954 -0.298100 -0.515096 -0.355399 -0.157035 -0.703929 -0.264223 0.167972 0.326052 -1.656464 -0.200797 0.106603 0.015309 -0.444821 -0.477208 0.240124 -0.262109 -0.502193 -0.513464 -0.250640 -0.240994 0.280507 -0.139319 -0.510034
side 0.346581 0.136623 0.465260 0.036544 -0.042718 -0.601563 0.094663 0.830632 0.057666 0.016941 -0.500993 -0.071515 -1.475939 0.308624 -0.436388 -0.404790 -0.266788 0.036750 -0.610375 0.521953 -0.073272 -0.093535 -0.681769 -0.455103 -0.893530
getting 0.524977 0.324326 -0.567141 -0.274745 0.582126 -0.554605 -0.037898 -0.168483 0.062955 -0.337033 -1.408296 -0.279829 0.087652 -0.233836 -0.191631 -0.003915 -0.203078 0.741629 -0.598227 -0.405884 -0.052567 -0.075127 0.598453 -0.388730 -1.168515
gave -0.646407 0.705672 0.116606 0.697873 0.430099 0.161554 0.093410 -0.409536 0.347182 -0.040004 -0.735226 0.023534 -0.123686 -0.276765 -0.266301 -0.072074 -0.502783 0.051194 -1.069995 0.469401 -0.423067 -1.005434 0.534544 0.827465 0.169738
last 0.172749 1.099595 -0.353339 0.146958 -0.169572 0.289280 -0.176418 0.587944 0.086766 0.358461 -0.531789 -0.116161 -0.771043 1.007790 0.216628 -0.292700 0.050954 0.182628 -0.123180 0.209152 0.350485 -0.164659 0.714824 -0.216509 -1.036277
long 0.679014 0.420041 -0.019088 -0.440409 -0.358179 -0.069688 -0.409807 -0.271646 0.578007 0.101593 -1.133772 0.131494 -0.581281 0.640962 0.161309 -0.395868 0.125771 -0.142218 -0.554723 -0.386451 0.156259 -0.076208 0.784722 -0.075811 -1.106321
bought -0.078663 0.287251 0.358195 0.281873 0.270306 -0.092054 -0.247597 -0.820152 -0.319528 -0.727551 -1.015269 0.743510 -0.334311 -0.128663 -0.497178 -0.410911 -0.193846 0.167068 -0.272884 0.001608 -0.143319 -0.095427 0.377163 0.424787 -0.572893
fish -0.239684 0.540299 0.193074 0.311930 -0.515846 -0.599692 -0.559485 0.266574 0.176405 0.165463 -0.245833 0.244028 -0.593420 -0.327856 -0.344055 -0.162494 -0.610650 0.064180 -0.382220 0.108046 -0.279191 -0.338683 0.196017 -0.095528 -0.379584
too 0.826509 0.106910 -0.982553 -0.703090 -0.445262 -0.044880 -0.886404 -0.077839 0.923337 -0.193153 -1.147958 -0.032250 0.542910 0.215078 0.235290 -0.032689 0.262028 -0.080037 -0.420899 -0.799938 -0.095302 0.791886 0.435477 -0.010043 -1.089741
them. -0.161278 0.170299 -0.211779 0.312528 0.599316 -0.474369 -0.109196 -0.179173 -0.107698 -0.568190 -0.497389 -0.037934 -0.421750 -0.043248 -0.186170 -0.485487 -0.747488 -0.448431 -0.882022 0.016889 -0.713348 -0.012545 0.433792 -0.051902 -0.508933
eggs 0.154661 0.088627 0.313672 0.329990 -0.303226 -0.567277 -0.126015 0.070893 0.207617 -0.093266 -0.045656 0.344220 -0.410247 -0.750026 -0.705982 -0.169050 -0.226317 0.194160 -0.208187 0.034786 -0.064939 -0.390984 -0.208454 -0.375448 0.089379
added 0.233141 0.298079 0.283578 0.305316 0.713188 -0.164265 0.132320 -0.365452 0.206726 -1.030763 -0.275252 0.501613 -0.636105 -0.222339 -0.845369 -0.173487 -0.287935 0.024051 -0.328584 0.054625 0.180960 -0.077847 -0.138893 0.136625 -0.385023
bed -0.132951 0.460278 0.444238 -0.114393 -0.078995 -0.382007 -0.055384 0.625054 0.158485 -0.455968 -0.539474 0.114013 -0.657933 0.082031 -0.475742 0.031966 -0.400267 -0.017993 -0.508893 0.044127 -0.250699 -0.581905 -0.347263 -0.321846 -0.251863
lot 0.461979 0.194459 -0.122012 0.150852 -0.308211 -0.165475 -0.653500 -0.456981 0.337866 0.088362 -0.920513 0.519329 -0.469136 0.263213 -0.033190 -0.463732 0.204778 0.148343 -0.481452 0.380516 0.375235 -0.057846 0.269306 -0.019089 -0.850616
am 0.118547 0.689539 -0.934456 -0.447198 0.594485 0.166789 -0.819789 -0.068772 0.157636 -0.076839 -1.201368 -0.425401 0.403628 -0.268365 -0.109007 -0.218902 0.399395 0.423236 -0.245511 -0.375730 0.057454 0.298320 0.443995 -0.012866 -1.109849
inside -0.098118 -0.066269 0.258748 0.125864 -0.052968 -0.558658 0.258594 0.080139 -0.100791 0.091667 -0.997420 0.092010 -0.906330 -0.630825 -0.606710 0.186428 -0.071015 0.485347 -0.864571 -0.600265 -0.276394 -0.328440 -0.479837 -0.536177 -0.279131
movie -0.222466 0.375308 0.244054 0.351068 -0.306161 -0.045173 -0.458265 0.167365 0.075175 0.286737 -0.319206 0.115627 -0.734997 -0.005254 -0.069352 -0.416044 -0.221378 0.249639 -0.342152 -0.109729 -0.020484 -0.244764 0.704310 0.023286 -0.490603
began -0.010230 0.240492 -0.071060 0.013521 0.463696 -0.098858 -0.208186 -0.188206 -0.180269 0.046977 -0.671156 0.032456 -0.522726 -0.231544 -0.500062 0.066197 -0.097560 0.410428 -0.463678 -0.609903 -0.287373 0.311078 -0.069391 0.008821 -0.258150
bus -0.262930 0.021579 0.285389 -0.227700 0.272522 0.385690 0.103827 0.719490 -0.254801 0.364542 0.082638 0.241483 -0.703188 -0.050240 0.321622 -0.433116 -0.259768 -0.799212 -0.498539 -0.665421 -0.175286 -0.478285 0.168524 -0.456489 0.186260
making 0.165405 0.589175 0.037680 0.032782 -0.075331 0.115279 0.028304 -0.021526 0.510108 -1.084063 -1.263794 -0.061067 -0.268851 0.333668 -0.146784 -0.456396 -0.295632 -0.409633 -0.351494 -0.156641 -0.907004 -0.106987 0.054431 0.324185 -0.182588
called -0.372399 0.462066 -0.003439 0.161140 0.320211 0.132055 -0.236244 -0.271936 -0.007386 -0.122151 -0.682554 0.015948 0.022217 -0.162005 -0.225004 -0.022798 -0.150594 -0.052235 -0.731087 -0.017369 -0.040293 -0.531024 0.317575 0.418333 -0.094435
favorite -0.002134 0.528332 -0.018237 0.254822 -0.258430 -0.276611 -0.378098 0.249128 -0.300789 0.106272 -0.345422 0.314665 -0.482442 0.544257 0.026303 0.041186 -0.537282 -0.107119 -0.377260 0.382340 -0.001918 -0.816852 0.142028 -0.328309 -0.566033
keep -0.332952 0.029991 0.009824 -0.028903 0.021397 -0.355696 -0.397070 -0.261208 0.193623 -0.294293 -0.732821 -0.199465 -0.382997 -0.388934 -0.449468 -0.025025 -0.227524 -0.148065 -0.416699 0.020358 -0.351850 0.154896 0.362616 0.068490 -0.368067
grabbed 0.151815 0.627215 0.394517 0.123931 0.598700 -0.165831 0.115812 -0.222293 -0.109669 -1.031161 -0.488984 0.257441 -0.311078 -0.166201 -0.808380 -0.149143 -0.272180 -0.105890 -0.390930 0.015250 0.049164 -0.475236 -0.099304 -0.134276 -0.296957
kitchen -0.445162 0.567827 0.605770 -0.093287 -0.118079 -0.378289 0.286491 0.710324 -0.159689 -0.220575 -0.521896 0.351358 -0.946253 -0.334302 -0.621376 -0.161193 -0.395440 -0.191505 -0.615138 -0.503120 0.014702 -0.546596 -0.286929 -0.479906 -0.111793
light 0.134174 0.083090 0.148364 0.110657 -0.212777 0.023664 -0.214528 1.063290 0.502912 -0.233697 0.226908 0.048540 -0.756179 -0.149891 -0.270837 0.289710 -0.020714 0.046021 0.086337 -0.179363 -0.021789 -0.125778 -0.255188 -0.413538 -0.273724
train -0.024956 0.172284 0.193740 0.002309 -0.012730 -0.046735 -0.087738 0.508013 -0.256789 0.379534 -0.223125 0.275049 -0.791845 -0.125979 0.107345 -0.291458 -0.271624 -0.315036 -0.408100 -0.655635 -0.326419 -0.700774 0.254715 -0.467104 -0.035897
only -0.078699 1.104752 -0.573749 0.129199 0.136284 0.177388 -0.441688 -0.263227 0.209129 0.095937 -0.957749 0.174870 -0.147053 0.193808 -0.306379 -0.591541 0.272279 0.017355 -0.160932 0.301135 -0.066923 -0.071691 0.851024 0.140432 -0.866376
floor -0.122887 0.545358 0.174375 0.012513 0.102441 -0.430814 -0.142149 0.637307 0.248540 0.015976 -0.519323 0.059527 -0.727682 -0.074499 -0.288990 -0.179000 -0.153443 0.185156 -0.359326 -0.052104 -0.210876 -0.089457 -0.069133 -0.322080 -0.223958
Then, 0.289116 0.533041 -0.384081 0.416472 0.660691 0.118391 -0.442082 0.266449 -0.516767 -0.196449 -0.355077 -0.586866 -0.077156 -0.484323 -0.284443 -0.512480 -0.689529 -0.120633 -0.614916 -0.504472 -0.407145 0.197715 0.416830 -0.599145 -0.142320
both -0.461741 0.278196 -0.000476 0.838372 0.408351 -0.793077 -0.311977 -0.493537 -0.319653 -0.115671 -0.887553 0.155859 -0.326015 -0.281491 -0.043619 -0.524642 -0.145243 0.534551 -0.350734 0.170425 -0.194356 0.019051 0.371929 0.539693 -0.604215
eat -0.155790 -0.326209 0.155232 -0.199415 -0.049228 -0.339442 -0.430990 -0.547436 -0.003857 -0.188617 -1.097420 0.151057 -0.267452 0.035322 -0.502537 -0.168299 -0.213027 -0.304126 -0.532234 -0.045090 -0.470669 0.165322 0.563829 0.343268 -0.334426
turn -0.286186 0.046992 0.117962 -0.026776 0.351776 -0.099385 -0.043235 0.089000 0.183862 -0.214742 -0.663547 0.142916 -0.554686 -0.537275 -0.502603 0.408973 -0.367724 -0.252534 -0.391703 -0.468265 -0.428111 0.060870 -0.156750 -0.766818 -0.306352
pick -0.680249 -0.296817 -0.168197 -0.272251 0.079938 0.044444 -0.298781 -0.228324 0.405351 -0.089882 -1.323518 -0.173751 0.036530 -0.619853 -0.775713 0.034730 -0.590089 0.027654 -0.589607 -0.186262 -0.368644 -0.281193 0.240540 -0.229288 -0.203289
waited 0.188270 -0.006118 0.336953 -0.070993 0.211847 -0.492451 0.036408 -0.564411 0.173388 0.369204 -0.417831 0.095430 -0.419951 -0.268820 -0.526801 -0.548553 0.122593 -0.160124 -0.679561 -0.690875 -0.333486 -0.353398 0.451052 0.233779 -0.124873
brought -0.412759 0.471426 0.240429 0.576982 0.367492 -0.190126 -0.025067 -0.471481 0.147499 -0.178828 -0.840642 0.007438 -0.205429 -0.499621 -0.376983 -0.080595 -0.456745 0.416683 -0.496109 -0.095306 -0.302360 -0.446138 0.282493 0.244637 -0.121348
morning 0.159889 0.759054 -0.438038 -0.441902 0.187619 0.157073 -0.527476 0.919403 -0.027339 0.380670 -0.498549 -0.341635 -0.580234 0.258718 -0.188006 -0.129235 0.104077 -0.179243 -0.460048 -0.161880 -0.226745 -0.533319 0.613210 -0.073878 -0.682313
check -0.500781 -0.185016 0.230227 -0.180671 -0.285927 0.020419 -0.092174 -0.228913 0.194871 -0.108480 -0.998319 0.091347 -0.215818 -0.540319 -0.716230 -0.144151 -0.262523 -0.399967 -0.558817 -0.055773 -0.360374 -0.079734 0.110212 -0.276183 0.046335
enough 0.017106 0.094560 -0.074280 -0.673034 -0.215986 0.112536 -0.302954 -0.339829 0.454981 -0.182874 -0.888290 0.388462 -0.546747 0.135938 -0.470174 0.153117 -0.120035 0.108206 -0.267113 0.001577 -0.152301 0.286129 0.133450 0.303626 -1.079849
knew -0.510441 0.976523 -0.340900 -0.018838 0.348544 0.451937 -1.348715 -0.168752 0.375981 0.300163 -0.594465 -0.950442 -0.317512 -0.544405 -0.183815 -0.483192 -0.279650 0.188469 -0.430574 0.121626 -0.219914 -0.105142 0.654773 0.584393 -0.553197
many 0.421346 0.330660 -0.382359 0.178809 -0.298920 -0.286989 -1.040472 -0.274577 0.314357 0.177240 -0.258828 -0.223718 -0.275221 0.043740 0.146230 -0.147116 -0.269464 0.433844 -0.592394 0.305871 0.036328 0.274289 0.641392 0.755359 -1.127972
thing -0.197281 1.337173 -0.739492 -0.227517 -0.308431 0.797395 -0.838398 0.586685 -0.119743 1.225323 -0.782548 -0.830467 -1.114148 0.852154 -0.552561 -0.337649 0.084494 0.587870 -0.237870 0.332607 0.210675 0.406183 0.544585 -0.177871 -0.913392
always -0.519271 0.744806 -0.504755 -0.074675 0.175984 0.434432 -0.916490 -0.167030 0.010187 0.072007 -1.282092 -0.058238 0.193080 -0.295572 -0.377020 -0.330274 0.239072 -0.383172 -0.174550 0.037327 -0.453448 0.301587 0.492619 0.192605 -0.395363
didn't -0.899006 0.645333 -0.974046 -0.155459 0.073142 0.510850 -1.487834 -0.150709 0.125747 0.167911 -0.944860 -0.648873 0.133249 -0.628504 -0.618101 -0.423047 0.443428 -0.244604 -0.032701 -0.243194 -0.421565 0.606197 0.273841 0.723114 -0.392207
coffee 0.217576 0.066466 0.214678 0.048427 -0.105798 -0.345942 0.244248 0.634466 0.374618 -0.556564 0.358854 0.234364 -0.941356 0.013913 -0.497933 0.275848 -0.252127 0.013974 -0.053259 -0.145794 0.214668 -0.376555 -0.445481 -0.291016 -0.060175
know -0.711803 0.206532 -0.465571 -0.499981 -0.273637 0.054401 -1.202777 -0.575582 0.774922 -0.051104 -0.680699 -0.629178 -0.238949 -0.445638 -0.361405 -0.517313 -0.388917 -0.265239 -0.549627 0.143733 -0.383736 0.004221 0.691610 0.835539 -0.209850
As 0.790762 0.549228 -0.102272 0.362552 0.321210 -0.013205 -0.287110 -0.117022 -0.494704 -0.276341 -0.297636 -0.402913 0.069632 -0.027358 0.134089 -0.591841 -0.461712 -0.206507 -0.482261 -0.492584 -0.739884 0.334075 0.666210 -0.162405 -0.360649
felt 0.098075 0.903541 -0.795717 -0.149051 0.291220 0.346349 -1.251873 0.011716 0.391369 0.252354 -0.918084 -0.335881 0.011270 0.059662 -0.201179 -0.396605 0.554647 0.071091 -0.161651 -0.149790 0.225412 -0.293405 0.629508 0.054275 -0.720019
up. -0.342075 -0.341095 -0.531454 0.231286 0.402294 -0.073888 0.136395 0.106397 0.445859 0.093401 -0.986821 -0.072789 -0.168914 -0.469389 -0.249273 -0.069009 -0.670704 -0.036503 -0.835349 -0.413664 -0.736427 -0.547664 0.175343 -1.124043 -0.164148
large 0.413388 0.179198 0.475037 0.281126 -0.108310 -0.168916 -0.104196 -0.239445 0.319267 -0.374687 -0.331272 0.648700 -0.573093 0.319080 -0.322198 -0.318811 -0.048143 -0.064992 -0.378382 -0.064845 0.619505 -0.289934 -0.150811 -0.213417 -0.523033
So 0.133065 0.454615 -0.627514 0.182171 0.559191 0.454471 -0.643621 0.053898 -0.548585 -0.164445 -0.604278 -0.432781 0.099704 -0.135472 0.021701 -0.509941 -0.549447 -0.169650 -0.733320 -0.367139 -0.297364 0.149107 0.641643 -0.159851 -0.480769
machine -0.235470 0.505207 0.390986 0.013905 0.487399 -0.240096 -0.052434 0.637212 0.137987 -0.133091 0.208122 0.160761 -0.612860 0.044915 -0.507436 -0.054700 -0.010031 -0.311493 -0.328504 -0.155857 0.479889 -0.106744 -0.150090 -0.320669 0.259876
home. -0.156945 -0.147415 -0.016462 0.257550 0.125030 -0.055511 0.227985 -0.128135 -0.628409 0.279487 -0.932992 0.108128 -0.610493 -0.392160 -0.457147 0.368001 -0.456383 0.333165 -1.109534 -0.890965 -0.829260 -0.590261 0.022372 -0.668268 -0.220884
milk 0.020451 0.123410 -0.032084 -0.097010 -0.220710 -0.443778 -0.282577 0.278850 0.472499 0.050382 -0.088710 0.191942 -0.708934 -0.323088 -0.569365 0.153188 -0.164232 0.000595 -0.238172 -0.107999 -0.008562 0.019348 0.022003 -0.216064 -0.354451
saw -0.195897 0.793066 -0.011266 0.119729 0.413966 0.129160 -0.747731 -0.058079 0.484485 0.031163 -0.431667 -0.454285 -0.412040 -0.191197 -0.278648 -0.444283 -0.192407 0.085042 -0.578815 0.279337 -0.401201 -0.528308 0.578225 0.492654 -0.377853
checked -0.510358 0.302799 0.060913 -0.098628 0.176704 0.090459 -0.218687 -0.116117 -0.036210 -0.107262 -0.964558 -0.085093 -0.212760 -0.409198 -0.575738 -0.126111 -0.173455 -0.109118 -0.442311 -0.275049 -0.524038 -0.209844 0.231763 -0.006873 0.029593
who -0.475470 0.720191 -0.314435 0.175671 -0.108340 0.106558 -0.973300 0.071167 0.343972 0.594757 -0.459349 -0.419073 -0.026587 -0.358209 0.069608 -0.121146 0.085817 0.178817 -0.457200 0.291535 -0.341041 -0.429411 0.606677 0.635731 0.025017
every 0.412843 0.200082 0.000387 -0.070581 -0.320028 -0.163269 -0.126643 0.115971 0.567779 -0.029390 -0.303206 -0.084183 -0.640704 0.619089 0.019391 -0.262896 -0.062528 -0.218085 -0.277491 0.094674 0.199820 -0.168817 0.252424 -0.033836 -0.616840
sit -0.304769 -0.651029 0.010776 0.023730 -0.057892 -0.428103 -0.156252 -0.377580 0.613975 0.306608 -1.258071 0.139997 -0.240589 -0.538773 -0.743316 -0.178398 0.261158 -0.120437 -0.621887 -0.604350 -0.549493 -0.330983 0.391249 -0.526448 0.012321
different 0.236383 -0.219217 -0.094831 -0.018932 -0.194591 -0.539570 -0.433889 -0.036232 -0.031316 -0.072266 -0.234177 0.204790 -0.720937 0.260376 -0.129369 -0.275417 -0.027913 0.346625 -0.504017 0.388887 0.167523 0.136957 -0.120159 0.308045 -0.860833
dry -0.191396 -0.172633 0.207905 0.017353 0.264900 -0.416973 -0.093665 0.144547 0.310786 -0.319507 -0.522803 0.280320 -0.336723 -0.303434 -0.675357 0.070527 -0.339292 -0.138064 -0.457566 -0.048852 -0.033734 -0.164221 0.048284 -0.422734 0.038246
finished 0.131298 0.545491 -0.269871 0.027363 0.667800 -0.277724 -0.284270 0.012380 -0.013001 -0.167853 -0.670399 -0.513588 -0.014743 -0.203814 -0.069013 -0.212552 -0.131243 0.747440 -0.400553 -0.352556 -0.209144 -0.046358 0.549063 0.019646 -0.645662
wash -0.397537 0.124886 0.318442 -0.267821 0.170927 -0.298725 -0.096134 0.091477 0.027212 -0.471738 -0.525744 -0.065480 -0.370940 -0.099308 -0.728769 0.020225 -0.501002 -0.546674 -0.393787 0.026010 -0.128287 -0.070437 -0.060408 -0.222547 -0.043492
phone -0.343303 0.366939 0.290759 -0.159632 -0.089819 -0.067324 -0.181602 0.257887 0.015635 -0.091260 -0.326626 0.267787 -0.193486 -0.202855 -0.438143 0.130809 -0.257643 -0.043954 -0.238869 -0.131893 0.247959 -0.553755 -0.277967 -0.170960 0.034314
water. 0.017785 0.117801 -0.073932 0.479917 0.849889 -0.324793 0.324941 0.480487 0.083493 -0.512620 -0.024213 0.542902 -0.459521 0.151615 -0.268905 -0.382231 -0.877367 -0.426361 -0.863987 0.010178 -0.124511 -0.343538 0.188214 -0.522434 -0.387722
book 0.005329 -0.013451 0.147270 -0.259290 0.038708 0.179730 -0.224025 0.111171 0.262726 -0.018071 -0.545124 0.249460 -0.532550 -0.134313 -0.235491 -0.162146 -0.292095 -0.258121 -0.648445 -0.255473 -0.150056 -0.772601 0.100546 -0.245081 -0.091469
order -0.337424 0.205281 0.231143 -0.450478 -0.065464 -0.303181 0.107341 -0.562147 -0.364537 -0.443883 -0.674227 -0.055263 -0.601877 -0.088720 -0.312118 -0.011956 0.013285 -0.607989 -0.706751 -0.239964 -0.421600 0.043932 0.297907 0.477884 -0.763603
poured 0.028911 0.125759 0.261959 0.488095 0.535910 -0.360353 0.458072 -0.129875 0.359962 -0.577235 -0.116101 0.464790 -0.544625 -0.477719 -0.914652 -0.057406 -0.230075 0.109084 -0.194784 -0.010356 0.147814 -0.299536 -0.343404 -0.356056 -0.138164
button -0.378479 0.088159 0.324229 0.208445 0.084817 -0.175799 -0.048871 0.273789 0.514950 -0.010465 -0.179327 0.132897 -0.701795 -0.443748 -0.403256 0.159535 0.022173 0.014978 -0.159260 -0.338087 0.069147 -0.111904 -0.352936 -0.384927 -0.128202
room. -0.030322 0.374038 0.124883 0.315894 0.225285 -0.173748 0.279163 0.271431 -0.662845 -0.033685 -0.190668 0.401468 -0.292332 0.078327 -0.014232 -0.430370 -0.584012 -0.633109 -0.629661 -0.286717 -0.154174 -0.195483 -0.101640 -0.787701 -0.032043
out. -0.019101 -0.053929 -0.272548 0.234615 0.277627 -0.053611 0.048048 0.155515 0.051269 0.027174 -0.672155 -0.093329 -0.271585 -0.559604 -0.449094 -0.019819 -0.382870 0.032852 -0.640736 -0.451366 -0.524993 -0.245945 0.067811 -0.961344 -0.200228
old 0.048518 0.378865 0.505297 -0.072413 -0.141014 -0.158287 -0.003545 0.637821 0.024204 -0.338159 -0.077387 0.218488 -0.491411 -0.028411 -0.278796 -0.058373 -0.406369 0.228429 -0.241414 -0.045299 0.102970 -0.398376 -0.261494 -0.162946 -0.343062
card 0.063319 -0.033197 0.283293 -0.095834 0.262649 0.088062 0.151802 0.264818 -0.418661 0.061060 0.113694 0.504257 -0.051879 0.086548 -0.265859 0.402619 -0.101135 -0.610142 -0.209970 -0.409476 0.525278 -0.658328 -0.570288 -0.523386 0.641164
in. -0.079694 -0.150092 -0.233041 0.411669 0.189634 -0.128432 0.039926 0.041790 0.127521 0.112457 -0.624414 0.110988 -0.240404 -0.554319 -0.277809 -0.122671 -0.398414 -0.105596 -0.677958 -0.494700 -0.635661 -0.239837 0.275289 -0.879982 -0.103786
wait 0.053289 -0.032124 0.158441 -0.531118 -0.146487 0.049956 -0.069237 -0.713232 0.336811 0.139767 -0.919715 0.278699 -0.114005 -0.091499 -0.565298 -0.332059 0.177851 -0.600795 -0.493089 -0.437794 -0.242381 0.358922 0.517147 0.228705 -0.290830
buy -0.095445 -0.143770 0.253927 -0.397542 -0.066394 0.088412 -0.282893 -0.513845 -0.066671 -0.608061 -0.898549 0.418597 -0.343632 -0.211542 -0.699261 -0.011937 -0.336774 -0.263546 -0.379720 -0.027601 -0.181577 0.195701 0.298358 0.378761 -0.383930
laundry -0.105986 0.279227 0.114995 -0.131756 -0.312779 -0.661846 0.130141 0.608812 -0.087050 -0.027900 0.072971 0.281327 -0.552847 -0.081275 -0.492065 -0.041649 -0.594382 -0.363105 -0.229704 -0.070820 0.080286 -0.439477 -0.386458 -0.773049 -0.202756
night 0.518599 0.578651 -0.018199 -0.058735 0.176438 0.262115 -0.351012 0.396965 -0.313638 0.015490 -0.417344 -0.343908 -0.393134 0.625077 -0.025417 -0.356142 -0.194094 0.053254 -0.387264 0.131146 0.188249 -0.231964 0.674145 -0.069519 -0.653436
since 0.269614 0.618399 -0.038013 -0.116900 -0.043756 -0.035115 -0.878578 -0.061183 0.285151 0.044147 -0.683118 -0.548000 -0.307938 -0.160549 -0.124361 -0.126881 -0.070746 0.045379 -0.208188 -0.105544 -0.332840 0.014676 0.607578 0.245092 -0.577562
usually -0.625509 0.633841 -0.582313 -0.088356 0.117371 0.197590 -0.913315 -0.047005 0.049719 0.064369 -0.980647 0.006091 0.146879 -0.455682 -0.572645 -0.290143 0.309546 -0.393251 -0.175175 0.092974 -0.279272 0.458487 0.431681 0.099899 -0.409442
great 0.402697 0.224356 -0.210214 -0.122817 -0.294607 0.069927 -0.407685 -0.248132 0.375114 0.141508 -0.980004 0.511449 -0.400597 0.754769 0.105291 -0.253995 0.181644 0.041407 -0.145812 -0.225402 0.493552 -0.086408 0.502266 -0.250846 -0.915418
me. -0.057266 0.268408 -0.305933 0.388253 0.497146 -0.031541 0.046667 -0.052084 -0.001285 -0.409707 -0.690463 -0.034902 -0.082661 0.126205 0.073463 -0.386009 -0.668165 -0.523351 -1.064387 0.173238 -0.454279 -0.471367 0.616972 -0.094930 -0.373167
onto -0.030323 -0.143933 0.254387 0.123603 0.211770 -0.705334 0.584779 0.134159 0.176269 -0.459369 -0.405700 0.165994 -0.843354 -0.243264 -0.571561 0.125490 -0.180778 0.068218 -0.526925 -0.250176 -0.342070 -0.407214 -0.309044 -0.554758 -0.290360
pay -0.115066 -0.223757 0.334598 -0.658488 -0.188240 -0.160443 -0.228682 -0.357855 0.186858 0.083814 -0.737888 0.011520 -0.076945 -0.088036 -0.620862 -0.000685 -0.027161 -0.549021 -0.614987 -0.176932 -0.231443 0.035157 0.208967 0.484031 -0.167096
best 0.011934 0.625270 -0.218294 -0.223010 -0.606090 0.062679 -0.770005 0.249210 -0.166121 0.215438 -0.973852 0.256312 0.021631 0.373464 0.077459 -0.020094 -0.436624 -0.224117 -0.224818 -0.057597 -0.033210 -0.605801 -0.121123 -0.157603 -0.728319
finally -0.185807 0.751895 -0.520940 0.242117 0.793218 0.047126 -0.673923 -0.261844 -0.347872 0.209053 -1.089476 -0.017436 0.100179 -0.467380 -0.284241 -0.483644 0.086620 0.371881 -0.280526 -0.332805 -0.130451 0.244155 0.546424 0.036044 -0.576956
day. 0.292735 0.328411 -0.171070 0.197398 0.061406 0.058455 -0.318665 0.288132 -0.371745 0.069508 -0.526983 0.092338 -0.503436 0.349801 0.129550 -0.372031 -0.568115 -0.305645 -0.685435 -0.161663 -0.127973 -0.238491 0.351492 -0.308458 -0.646473
open -0.283921 0.063206 0.316098 -0.129474 0.350438 -0.393797 0.130319 0.384112 0.264657 -0.377630 -0.517947 -0.076761 -0.461932 -0.278905 -0.685466 -0.065959 -0.058460 -0.168536 -0.538166 -0.081333 -0.033490 -0.139905 -0.262064 -0.314878 -0.082631
come -0.500215 -0.153416 -0.207947 -0.250729 -0.327676 0.113434 -0.332116 -0.196773 -0.188710 0.200596 -1.118697 0.042113 -0.052608 -0.681753 -0.516182 0.086481 -0.266420 -0.014274 -0.740467 -0.318135 -0.519459 0.038501 0.430052 -0.217430 0.052708
Last 0.669454 0.331643 -0.238491 0.187112 0.215421 0.720825 0.175859 0.334947 -0.377326 -0.179314 0.166821 -0.221024 0.052851 0.832679 0.496657 -0.409350 -0.288669 -0.377274 -0.166722 -0.022459 0.220961 -0.097656 0.668048 -0.183762 -0.629456
cook -0.082269 -0.228841 0.099895 -0.191047 -0.120678 -0.174280 -0.108876 -0.192508 0.646932 0.063631 -0.636250 0.088349 -0.325782 -0.348329 -0.649928 0.018677 -0.080876 -0.376506 -0.518486 -0.149131 -0.397390 -0.037032 0.374160 -0.067794 -0.223715
head -0.111525 0.173099 0.184786 0.142569 0.119009 -0.280993 0.006804 0.224026 -0.284985 0.105548 -0.581662 0.162768 -0.608062 -0.380462 -0.564595 0.317375 -0.416808 0.197980 -0.577480 -0.250248 -0.281414 -0.483909 -0.497655 -0.494808 0.016585
dishes -0.373957 0.213863 -0.024346 0.286830 -0.057953 -0.829346 -0.372708 0.344494 0.115338 0.052431 -0.106444 0.136571 -0.469948 -0.403615 -0.385054 -0.132409 -0.518861 0.302183 -0.298391 0.168118 0.008319 -0.153181 -0.061587 -0.155041 -0.286697
it's 0.493106 0.702891 -0.534981 -0.255423 0.214846 0.055353 -0.610589 -0.030998 0.608853 0.058755 -0.784991 -0.792352 -0.127442 0.101297 0.192454 -0.316289 -0.352212 0.046533 -0.194076 -0.197016 -0.328049 0.298080 0.675242 -0.173835 -0.928726
something 0.020397 0.053343 -0.336512 -0.613225 -0.081438 0.357172 -0.680776 -0.621780 0.534164 -0.293434 -0.802674 -0.050869 -0.313595 0.094563 -0.535031 0.035349 -0.024656 -0.246535 -0.534374 -0.010981 -0.197740 -0.021953 0.503748 0.462016 -0.840309
dinner 0.202609 -0.129836 0.285685 -0.101933 -0.091218 -0.090833 -0.172791 -0.258345 0.091893 -0.230928 -0.777098 0.121042 -0.470738 0.527337 -0.216164 -0.195073 -0.010850 -0.170794 -0.447858 0.024815 -0.187897 -0.418516 0.444933 0.371744 -0.467602
no 0.489904 0.433324 -0.444027 -0.048376 0.008919 -0.198338 -0.573579 -0.299258 0.556155 -0.059208 -0.670948 0.102817 -0.239238 0.058490 0.118023 -0.281918 -0.109152 0.364212 -0.223587 0.316056 -0.273927 0.213803 0.695322 0.267476 -0.942038
time. 0.280294 0.342228 -0.256303 0.097524 0.179660 0.025771 -0.310507 0.206548 -0.256435 0.103100 -0.566871 0.066513 -0.683637 0.613494 0.252184 -0.598732 -0.359168 -0.265203 -0.593710 -0.177736 -0.175469 -0.030111 0.493125 -0.310608 -0.845470
walk -0.475999 -0.121669 -0.004716 0.090124 -0.049283 -0.094366 -0.092996 -0.440144 -0.109850 0.084364 -0.815687 0.132001 -0.299194 -0.341767 -0.508426 0.091413 -0.015228 -0.094567 -0.463775 -0.491734 -0.106445 0.034086 -0.095196 -0.182198 -0.040947
stove -0.385802 0.130407 0.676588 0.005562 0.358456 -0.458410 0.470542 0.448299 0.193232 -0.404162 -0.203233 0.464569 -1.142438 -0.154135 -0.441006 0.186288 -0.229691 -0.072115 -0.163187 -0.451021 -0.214275 -0.314561 -0.334297 -0.790762 -0.201341
thought -0.360172 0.674623 -0.534370 0.092722 0.091716 0.420587 -0.906805 -0.483401 0.405582 0.222060 -0.765028 -0.598351 -0.220295 -0.480070 -0.288706 -0.623398 -0.053024 0.213213 -0.203799 0.212923 -0.203383 -0.295458 0.653836 0.359290 -0.406592
list 0.102797 0.219183 0.163850 -0.138205 -0.332558 0.272760 -0.622942 0.042259 0.200054 -0.275769 -0.598075 0.082632 -0.440764 0.313826 -0.131847 -0.299751 -0.004564 -0.222527 -0.198418 -0.077140 -0.053061 -0.346749 -0.448387 -0.011325 -0.129370
well 1.564687 0.939663 0.222374 -0.687035 -0.201201 -0.479688 -0.698963 -0.186114 0.060251 -0.484222 -0.785216 -0.259002 0.148691 0.196307 -0.068640 -0.658418 0.369856 0.085822 -0.421905 -0.741898 -1.132790 0.195421 0.414110 -0.241841 -0.246664
even 0.032981 0.391271 -0.262879 0.072041 0.295349 0.078226 -0.517995 -0.354160 0.158045 -0.014500 -0.636483 -0.002371 0.029391 -0.473006 -0.271591 -0.362950 -0.065947 0.128103 -0.209692 -0.028079 -0.443860 0.251781 0.299215 0.149896 -0.268001
help -0.626014 -0.213674 -0.047143 0.020040 -0.113505 0.110042 -0.255622 -0.444533 0.358211 -0.112561 -1.081501 -0.122530 0.059670 -0.097098 -0.372382 -0.111995 -0.335344 -0.470720 -1.001773 0.562470 -0.334753 -0.085651 0.475141 0.671623 0.116654
pot 0.064784 -0.137556 0.582418 0.032152 0.038901 -0.267825 0.112202 0.289819 0.582513 -0.295186 -0.227187 0.418726 -0.796230 -0.115096 -0.660380 -0.011531 -0.038247 0.070984 -0.284262 -0.110890 0.309154 -0.266291 -0.544806 -0.605984 -0.323496
tree 0.032938 -0.187895 -0.025346 -0.213498 -0.022061 0.067204 -0.366707 0.386213 0.206824 0.215383 0.014795 0.341916 -0.677319 0.017147 0.123303 -0.235107 -0.027479 -0.312839 -0.253436 -0.393306 -0.046205 -0.239767 0.060459 -0.489126 -0.190791
First 0.089103 0.132073 -0.357289 0.212344 0.491516 0.369399 -0.503708 0.141018 -0.545115 -0.175646 -0.408685 -0.520509 -0.039608 -0.184818 -0.029685 -0.531510 -0.502898 -0.346366 -0.560467 -0.372808 -0.281594 0.187415 0.348725 -0.466143 -0.325726
able -0.291742 0.082345 -0.534153 -0.449643 0.116874 0.297981 -0.314348 -0.278899 -0.103145 -0.034580 -1.474821 0.200958 0.183195 -0.358622 -0.505925 0.044467 0.249995 0.106602 -0.364438 -0.439787 -0.256188 0.757336 0.224699 0.013447 -0.652884
bathroom -0.226752 0.396942 0.347960 -0.105296 -0.065729 -0.153620 0.060815 0.668738 0.024155 -0.191727 -0.393319 0.189117 -0.554648 -0.241562 -0.495967 0.118838 -0.111632 -0.331846 -0.397827 -0.312442 0.011638 -0.196022 -0.180524 -0.385198 0.111954
couple 0.516709 -0.069624 0.146365 0.374908 -0.156069 -0.101093 0.046358 -0.434004 0.091286 -0.119949 -0.310743 0.358677 -0.655318 0.310086 -0.136996 -0.470427 0.227024 0.280559 -0.475385 0.341584 0.556787 -0.239368 0.049278 0.226221 -0.575299
outside 0.055725 -0.080474 0.280697 -0.179110 -0.026668 -0.238761 0.268584 0.018798 0.074370 0.138634 -0.894871 0.234668 -0.634705 -0.209538 -0.614191 0.189163 0.199091 0.468514 -0.724840 -0.398916 -0.063561 -0.155450 -0.222640 -0.232666 -0.305182
than 0.616593 0.096637 -0.404094 -0.562499 0.180248 0.114319 -0.192623 -0.167845 0.205447 -0.123900 -0.281893 -0.276145 -0.208754 -0.033950 -0.164232 -0.101639 -0.028107 0.015919 -0.173189 0.175884 0.010575 0.072073 0.316853 0.139357 -0.500677
box -0.030758 0.122279 0.404547 0.091118 0.058536 -0.219399 -0.156022 0.217217 0.286328 -0.180354 -0.308923 0.228952 -0.656966 -0.112560 -0.483176 -0.239813 -0.100452 0.137887 -0.371716 0.051673 0.311176 -0.295376 -0.306057 -0.280646 -0.139134
under -0.185965 -0.028798 0.315000 0.135483 0.215308 -0.702457 0.460026 0.174819 0.272720 -0.400953 -0.261336 0.075882 -0.715205 -0.130084 -0.473778 0.175461 -0.168083 -0.151917 -0.459143 -0.077215 -0.038091 -0.219418 -0.481655 -0.257779 -0.129601
mom -0.384827 0.904841 -0.235038 0.487324 0.247599 0.083143 -0.673852 0.085881 -0.254046 0.383928 -0.603953 -0.132633 0.209875 -0.141003 0.014244 0.021811 -0.250959 0.214421 -0.582384 0.180510 -0.327934 -0.865358 0.239071 0.344235 0.364678
another 0.158946 0.001163 0.212841 0.072693 0.048759 -0.377897 0.339592 -0.191264 0.170044 -0.486686 -0.363277 0.077937 -0.754988 0.260494 -0.348096 -0.215136 -0.120052 -0.297779 -0.586058 0.092462 0.036955 -0.295316 0.025153 -0.102782 -0.384064
cleaning 0.059894 -0.184858 0.026826 -0.107625 0.187615 -0.336050 -0.009143 0.245433 0.272635 -0.460196 -0.197974 -0.150584 -0.318642 -0.033523 -0.393833 0.341147 -0.321790 0.136882 -0.318664 -0.223592 0.168899 -0.393696 -0.210660 -0.207891 -0.272272
heat -0.502617 -0.522156 0.053860 -0.200772 0.152720 -0.099370 0.238948 0.424874 0.717009 -0.026657 -0.539887 0.167321 -0.587427 -0.512653 -0.446642 0.368958 -0.198152 -0.070216 -0.412025 -0.347096 -0.427403 -0.142904 -0.152376 -0.901414 -0.135715
paid -0.281151 0.112824 0.298648 -0.113677 0.329534 -0.222454 -0.079787 -0.426592 -0.039764 0.130483 -0.470019 0.037034 -0.104330 -0.177816 -0.448443 -0.300868 0.097812 -0.154728 -0.582818 -0.428035 -0.087859 -0.350901 0.264462 0.617599 -0.094768
week 0.570845 0.179015 -0.082961 -0.196658 -0.123613 0.286288 -0.344417 0.310712 -0.130531 0.080640 -0.292740 -0.176724 -0.496558 0.565453 -0.020679 -0.416581 -0.094232 -0.210900 -0.409726 -0.039165 0.184097 -0.074200 0.469215 0.009380 -0.668553
garbage 0.093343 0.420940 0.463320 0.177750 -0.438148 -0.350279 -0.208722 0.323345 0.124395 -0.012811 0.328369 0.150730 -0.689590 -0.172656 -0.335706 -0.215246 -0.174376 -0.231684 -0.052778 -0.135827 0.687557 -0.300069 -0.668052 -0.737414 -0.128799
together -0.049867 -0.267082 -0.004537 -0.097995 0.039223 -0.695549 -0.241119 -0.183278 0.126609 -0.060936 -0.730764 0.259523 -0.361515 -0.311000 -0.477568 0.111537 -0.081109 0.552047 -0.363796 -0.233454 -0.482917 -0.165518 0.189257 -0.142339 -0.337622
While 0.407778 0.332622 -0.315840 0.370870 0.421990 0.048683 -0.053365 0.261927 0.148400 0.110318 0.084752 -0.572744 -0.098078 -0.160768 0.145173 -0.460531 -0.517684 -0.373881 -0.414494 -0.277940 -0.453525 -0.006105 0.557824 -0.489069 -0.224085
trip -0.178880 -0.006125 0.115319 -0.164717 -0.219844 0.120098 -0.156511 -0.304206 -0.182759 0.085079 -0.596768 0.315865 -0.481584 0.179697 -0.128115 0.101243 -0.096812 -0.219152 -0.323513 -0.410277 0.016516 -0.229272 0.201550 -0.069891 -0.364711
bowl 0.136968 -0.100414 0.468597 -0.014126 0.036033 -0.319012 0.085340 0.185787 0.181410 -0.312287 -0.104082 0.496925 -0.718573 0.036729 -0.497636 -0.018661 0.131096 -0.094986 -0.385991 -0.113594 0.320839 -0.379355 -0.347816 -0.423379 0.126146
filled 0.099965 0.243582 0.407944 -0.061330 0.565818 -0.408689 -0.008665 0.272957 0.700316 0.056413 -0.618693 -0.110686 -0.100060 -0.090354 -0.550065 -0.038733 -0.062613 0.363356 -0.251228 -0.450679 0.173477 -0.173131 -0.264728 -0.464881 -0.050163
whole -0.010554 0.740461 0.244756 0.287317 -0.449241 -0.051924 -0.170313 0.351018 0.189821 0.132955 -0.332534 0.211017 -0.470810 0.206451 0.040418 -0.309900 -0.255263 -0.270592 -0.154356 -0.064833 0.181999 -0.362807 0.070492 -0.342608 -0.387572
fun 0.371260 0.300478 -0.210869 -0.196247 -0.133088 -0.183784 -0.523454 -0.095810 0.114256 0.097717 -0.692296 0.272388 -0.504495 0.577075 0.062013 -0.175116 -0.064274 0.335168 -0.273012 0.130050 0.358875 0.214020 0.472081 0.150443 -0.967313
house. -0.097556 0.235132 0.139545 0.245476 0.077061 -0.208595 -0.242664 0.151865 -0.696835 -0.068155 -0.523241 0.157600 -0.395648 0.146323 0.173405 -0.315653 -0.604172 -0.492500 -0.553818 -0.206170 -0.339620 -0.349504 0.184508 -0.395194 -0.451106
add -0.018019 0.186879 0.071685 0.124676 0.109403 -0.010975 -0.128909 -0.421869 0.205309 -0.596843 -0.491525 0.312333 -0.329466 -0.220819 -0.735871 0.033291 -0.074720 -0.173060 -0.256234 0.061639 -0.072760 0.205792 0.065378 0.119542 -0.269489
arrived -0.202177 -0.098063 0.059465 -0.044133 0.322204 -0.501381 -0.556228 -0.014925 -0.685178 0.557721 -0.782098 -0.469216 -0.313338 0.009163 -0.035870 -0.646332 0.133226 0.217260 -0.232288 -0.665395 -0.195209 -0.269134 0.351568 0.141897 -0.566555
carefully -0.300317 0.457349 -0.098844 0.284954 0.895551 -0.133431 -0.223921 -0.031065 0.026139 -0.097609 -0.513257 -0.016390 -0.272063 -0.503706 -0.801618 -0.317278 0.149323 0.193679 -0.103129 -0.298987 0.009273 0.287951 -0.260100 -0.220822 0.152060
letter -0.113118 0.223863 0.065780 -0.025231 -0.199323 0.015517 -0.207592 0.058122 0.313715 -0.109793 -0.375858 0.129812 -0.312955 -0.318702 -0.400439 0.166031 -0.034314 -0.027347 -0.221711 -0.279083 0.103349 -0.442466 0.005169 -0.376586 -0.078555
removed -0.186485 0.216422 0.097652 0.170227 0.585061 -0.554835 -0.028844 -0.005582 0.175733 -0.617429 -0.192890 -0.091980 -0.489675 -0.273778 -0.624244 -0.195616 0.013734 0.100952 -0.138900 -0.180332 0.033078 0.137643 -0.159155 -0.155848 -0.020275
baby -0.190279 0.521115 -0.030306 0.420557 -0.044562 -0.144173 -0.238078 0.384612 0.238161 0.137255 -0.187423 0.190417 -0.334734 -0.178784 -0.200917 0.124735 -0.179178 0.080439 -0.215612 -0.043732 -0.046529 -0.480268 0.074228 -0.415348 -0.083601
cup 0.215888 -0.055567 0.540255 0.036168 -0.040196 -0.149065 0.054943 0.062514 0.296482 -0.278093 -0.186526 0.433465 -0.693230 0.090045 -0.569510 -0.165173 -0.126089 0.079543 -0.330715 0.163090 0.529011 -0.310360 -0.637763 -0.232157 -0.314073
myself 0.073196 -0.104204 0.200841 -0.087976 0.240511 0.061073 0.190696 -0.584090 0.555312 -0.860029 -0.849955 0.198205 -0.182368 -0.046292 -0.661634 -0.022079 0.014178 -0.122299 -0.290428 0.110412 -0.410613 -0.447958 0.117369 0.130324 -0.358495
A 0.499951 0.286924 -0.191543 0.883079 -0.026215 0.306617 -0.045307 -0.473927 0.187563 0.021220 -0.242306 0.308915 -0.237145 0.697772 0.316393 -0.751246 0.005498 -0.657209 -0.481765 -0.004023 0.657957 -0.429798 0.441242 -0.433863 -0.216430
I'm 0.504753 0.588087 -0.742958 -0.065637 0.454144 0.137582 -0.467850 0.021829 0.175253 -0.143458 -0.812769 -0.714734 0.440545 -0.193281 0.182180 -0.237483 -0.174368 0.412343 -0.183125 -0.314015 -0.386765 0.438798 0.586446 -0.044881 -0.780907
cake 0.247222 -0.186685 0.218287 -0.046629 0.087490 0.164602 -0.024135 0.282810 0.283414 0.026725 0.128470 0.347323 -0.574171 0.055274 0.013126 -0.272442 -0.078743 -0.466117 -0.186733 -0.445573 -0.015160 -0.401485 0.194771 -0.471695 0.145020
bit 0.698174 -0.086474 -0.197068 0.055147 0.050170 -0.388260 -0.372455 -0.059367 0.277589 0.099879 -0.233221 0.660603 -0.719088 0.373524 -0.317527 0.007889 0.175610 0.303340 -0.765224 0.379195 0.763079 0.033110 -0.363083 -0.514215 -0.852387
looking 0.332136 -0.402464 -0.077742 -0.611476 0.213510 -0.362330 -0.046407 -0.326938 0.103353 0.211830 -1.053759 -0.022581 0.000844 0.151005 -0.260271 -0.156491 0.341336 0.367244 -0.398066 -0.723615 0.046229 -0.079480 0.028356 0.055297 -0.826522
shopping 0.082383 0.061181 0.428918 -0.190534 -0.531693 0.290972 -0.080222 0.072242 -0.076216 -0.089706 -0.418194 0.369061 -0.239628 0.415621 0.018594 0.184799 -0.056380 -0.718296 -0.096395 -0.575955 0.283486 -0.372182 -0.525440 -0.439262 0.144739
still -0.048846 0.666088 -0.777365 0.003334 0.181790 -0.050999 -0.937940 0.077036 0.185099 0.283722 -1.020533 -0.118762 0.282722 -0.299827 -0.163162 -0.147363 0.203321 0.327544 -0.073809 -0.076230 -0.201588 0.257616 0.398861 -0.049112 -0.777592
bed. -0.099631 0.200308 0.036620 0.080759 0.037023 -0.103351 0.131081 0.233505 -0.204537 -0.332077 -0.574521 0.013612 -0.415765 0.012794 -0.147275 -0.151757 -0.721235 -0.460723 -0.599325 -0.165383 -0.491450 -0.293209 -0.045179 -0.430176 -0.226525
dog -0.032278 0.001506 -0.123652 0.193472 0.130729 0.075180 -0.391229 0.943499 0.284746 0.158344 0.083717 0.440807 -0.328029 0.176309 -0.639174 0.633163 -0.387486 -0.202424 -0.266955 0.144314 0.350525 -0.737664 -0.020741 -0.067828 -0.330422
In 0.100078 0.314052 -0.061314 0.061255 0.252583 -0.049275 0.180530 -0.074747 -0.420724 -0.272920 -0.235513 -0.152144 -0.255921 0.240416 0.301681 -0.389310 -0.386879 -0.902583 -0.613125 -0.164345 -0.357617 0.048605 0.461125 -0.127156 -0.527355
dirty -0.355485 0.306941 0.100109 0.092003 -0.115945 -0.949734 -0.106840 0.528939 -0.205769 -0.284021 0.004026 0.308698 -0.377818 0.007074 -0.335470 0.015710 -0.932868 0.080579 -0.083979 0.121366 0.328776 -0.454408 -0.544952 -0.610849 -0.442038
on. 0.024697 -0.155610 -0.280497 0.231557 0.224593 -0.035816 -0.015009 0.173452 0.113651 0.099936 -0.627093 0.125342 -0.432617 -0.428031 -0.210751 0.051294 -0.287078 0.038441 -0.631086 -0.497964 -0.704991 -0.134065 0.153699 -0.949701 -0.365650
it, -0.059302 0.387531 0.220957 -0.216361 0.533665 -0.465846 -0.122328 -0.070464 0.167850 -0.491241 -0.410277 -0.267336 -0.460586 -0.133158 -0.258453 -0.074338 -0.092342 -0.132153 -0.248157 -0.124787 -0.192707 -0.081695 0.279181 0.052307 -0.168913
don't -0.788004 0.418350 -0.768913 -0.189349 -0.086542 0.374965 -1.432735 -0.364179 -0.040174 0.021768 -0.764643 -0.469661 0.324997 -0.579189 -0.615498 -0.417738 0.319267 -0.425283 0.118708 -0.184438 -0.386460 0.730385 0.120799 0.565851 -0.387158
everyone -0.001603 0.582018 -0.237359 0.302230 0.260331 -0.027790 -0.576898 -0.184832 0.119662 0.151602 -0.367947 -0.519186 -0.324069 -0.282312 -0.218807 -0.182367 -0.183042 0.317361 -0.458147 -0.112116 -0.487272 -0.293703 0.697618 0.414683 -0.178472
half 0.597112 0.404718 0.402800 -0.150772 0.270559 -0.629735 0.313928 -0.415189 0.362594 -0.544296 -0.764152 0.069493 -0.423444 0.460610 -0.058675 -0.430079 0.243004 -0.026688 -0.431142 0.182363 0.012848 -0.466033 0.122908 -0.070062 -0.505416
several 0.537728 0.030883 -0.171738 0.160882 0.073645 -0.306511 0.132804 -0.375330 0.241549 -0.335459 -0.180841 0.182360 -0.561481 0.256051 -0.073810 -0.286622 0.025110 0.318514 -0.324338 0.198047 0.040530 -0.152491 0.286445 0.328390 -0.626926
stop -0.074081 -0.294997 0.178271 -0.425301 0.035710 0.068434 -0.180948 0.309159 -0.262467 0.211548 -0.404639 0.097272 -0.479920 0.110202 0.102557 -0.209733 -0.028742 -0.521312 -0.425605 -0.559270 -0.141796 -0.163424 0.159628 -0.141003 0.102466
drive -0.272474 0.107901 0.114587 -0.178212 -0.075109 0.029848 -0.057267 -0.224138 -0.240977 0.036271 -0.815482 0.048817 -0.212957 -0.292078 -0.402986 0.255485 -0.083431 -0.086169 -0.467057 -0.419551 -0.237690 0.026548 0.144846 -0.144335 -0.028525
One 0.342853 0.388763 -0.060421 0.258891 0.015631 0.153427 -0.115351 0.346040 -0.341846 0.167089 -0.126885 -0.200490 -0.377581 0.522799 0.215024 -0.478258 -0.440094 -0.265159 -0.280966 0.242918 0.192117 -0.144302 0.088904 -0.349949 -0.692947
folded -0.088169 0.115738 0.150671 0.219005 0.538311 -0.585959 -0.266396 -0.089195 0.383225 -0.338187 -0.211637 -0.161690 -0.328013 -0.374711 -0.631441 -0.106177 -0.299263 0.245695 -0.051778 0.054912 0.110350 -0.165782 -0.189357 -0.347124 0.038693
party -0.073729 0.204030 0.286723 -0.106439 -0.181518 0.161194 -0.182345 -0.000612 -0.013369 0.308381 -0.441730 0.263972 -0.301869 0.084333 -0.269194 -0.205858 -0.053408 -0.138165 -0.285194 -0.130600 0.159157 -0.205287 0.337121 0.052192 -0.226541
excited 0.048929 0.304314 -0.471806 -0.568346 0.142291 0.226635 -0.819090 -0.394466 0.104652 0.091814 -1.221669 -0.156122 0.251483 -0.224695 -0.098455 -0.211743 -0.036407 0.212048 -0.546131 -0.420080 0.070832 0.403096 0.687992 0.270383 -0.642962
read -0.112026 0.060239 0.067272 -0.217196 0.184560 -0.002156 -0.128394 -0.244423 0.160751 -0.388746 -0.657342 0.077940 -0.359649 -0.178746 -0.477746 -0.122137 -0.072100 -0.386193 -0.374695 -0.126753 -0.338593 0.048483 0.181917 0.144645 -0.114128
wall -0.129200 0.290329 0.242834 0.086651 -0.161169 -0.218043 -0.022320 0.572574 0.270383 -0.060169 0.099796 0.268288 -0.806162 -0.003217 -0.191896 -0.111590 -0.109943 -0.024573 -0.239138 0.008448 0.088451 -0.178967 0.023018 -0.211738 -0.332269
being 0.237826 0.325120 -0.559166 -0.202244 0.255207 -0.269802 -0.272195 -0.004343 0.215925 -0.232981 -0.829977 0.093699 0.142945 0.039898 -0.013841 -0.052359 0.030405 0.290232 -0.349755 -0.250667 -0.157101 0.142584 0.405991 -0.133588 -0.644395
same 0.028723 0.645595 -0.143420 -0.390089 -0.280745 -0.382301 -0.033964 0.557303 0.350420 0.200605 -0.393642 -0.099775 -0.423070 0.414987 0.055253 -0.510409 -0.167353 0.083239 -0.022051 -0.113335 0.016328 0.161390 0.146864 -0.198592 -0.668122
bottom 0.040853 0.191477 0.509984 0.078880 -0.111712 -0.405136 0.368375 0.568495 0.128131 -0.186104 -0.006784 0.017790 -0.784292 0.006346 -0.304816 -0.382819 -0.161889 0.003948 -0.182043 0.309126 0.046017 -0.007549 -0.620468 -0.213488 -0.180401
up, -0.203970 -0.034848 -0.123025 -0.233768 0.338519 -0.250793 -0.162427 0.270059 0.289005 0.060688 -0.749482 -0.245391 -0.108836 -0.467081 -0.457816 0.092456 -0.127245 0.356496 -0.293229 -0.281292 -0.202815 -0.197961 0.178830 -0.408084 -0.092056
warm 0.000495 0.040215 0.005182 -0.095572 0.313943 -0.327807 0.059666 0.391249 0.503560 -0.203405 -0.393444 0.462976 -0.169423 0.173353 -0.129598 -0.090306 -0.495086 -0.109755 -0.430244 -0.019639 0.260873 -0.122855 0.347961 -0.208168 -0.436274
paint -0.220249 -0.081209 0.175457 0.011031 -0.142687 -0.238750 -0.108912 0.343482 0.266362 -0.120349 -0.039190 0.237653 -0.592030 -0.169604 -0.216227 -0.006263 -0.205640 -0.192762 -0.278970 -0.061582 0.036337 0.036569 0.122025 -0.143999 -0.238601
washed -0.118459 0.261604 0.088821 -0.006819 0.577465 -0.266623 0.048008 -0.072426 0.047651 -0.465834 -0.478489 -0.161651 -0.140100 -0.152706 -0.469237 -0.027120 -0.227884 0.098175 -0.401178 -0.088392 -0.142780 -0.296774 0.006946 -0.250489 -0.041950
items -0.150872 0.000345 -0.128661 -0.170386 -0.052560 -0.213900 -0.725278 0.111122 0.172651 0.049823 -0.201937 -0.027715 -0.614495 -0.107855 -0.258573 -0.143602 -0.446738 0.316208 -0.333728 0.015291 -0.096849 -0.229993 -0.008329 -0.100301 -0.411399
soap -0.096562 -0.148404 0.098833 -0.013836 0.294117 -0.344447 0.070024 0.374922 0.239476 -0.383908 -0.078930 0.286827 -0.407334 -0.082125 -0.374329 0.124106 -0.375066 0.081003 -0.346534 0.065453 -0.020621 -0.483420 -0.128872 -0.326133 -0.057441
washing 0.022226 0.354610 0.495683 -0.082425 0.165923 -0.505274 0.577530 0.679175 0.120490 -0.526944 0.522657 0.087106 -0.687890 -0.057849 -0.393374 -0.129581 -0.423954 -0.341746 -0.269271 -0.344095 0.347886 -0.016274 -0.258606 -0.420452 0.011099
most 0.334957 0.465996 -0.138174 -0.008249 -0.125744 -0.226303 -0.313474 0.100163 0.348541 0.110650 -0.512114 -0.100851 -0.237066 0.026788 0.087956 -0.290891 -0.205540 0.230819 -0.244396 0.297166 -0.049521 0.003761 -0.020770 -0.018944 -0.790984
now 0.303592 0.695232 -0.576845 -0.129180 0.278739 0.087580 -0.668004 0.224867 0.210422 0.238354 -0.863909 -0.160106 0.094791 -0.075494 -0.077801 -0.050862 -0.022456 0.311272 -0.320540 -0.096189 -0.216459 0.125941 0.431593 -0.135646 -0.577847
using 0.285238 0.257655 0.145341 -0.092300 0.335990 -0.365750 0.327632 0.069778 0.173647 -0.705037 -0.263833 0.036880 -0.359279 0.007985 -0.380624 -0.001801 -0.092589 -0.135671 -0.289173 -0.074468 -0.215357 -0.183978 -0.036207 0.082677 -0.461797
watch -0.253843 0.201948 0.363954 -0.051706 -0.117013 -0.044664 -0.112422 -0.304044 0.008440 -0.334880 -0.583257 0.157779 -0.222142 -0.146234 -0.505551 -0.101207 -0.270514 -0.471576 -0.321178 0.015695 -0.297706 0.052170 0.334701 0.411013 -0.131537
First, 0.078671 0.246674 -0.197869 0.345892 0.310523 0.351353 -0.530923 0.018547 -0.592181 -0.060833 -0.328907 -0.498831 -0.044247 -0.250746 -0.115103 -0.391407 -0.522343 -0.241744 -0.420008 -0.261107 -0.235536 0.180865 0.468942 -0.048964 -0.130776
along 0.098925 0.102545 0.614262 -0.143397 0.116337 -0.501424 0.111858 0.080308 0.474580 0.087936 -0.792305 -0.057488 -0.147197 0.155594 -0.374887 0.066082 0.030824 0.225473 -0.370954 -0.514669 -0.141390 -0.038018 -0.136426 -0.267533 -0.083332
again 0.050422 0.061934 -0.087874 -0.331123 0.216891 -0.145895 -0.134026 0.244226 0.086812 0.048107 -0.632236 -0.013055 -0.336368 -0.131883 -0.241646 0.058066 0.035252 0.082286 -0.344013 -0.301704 -0.376166 0.045063 0.075338 -0.208957 -0.030312
packed -0.487260 0.012099 0.150261 0.457640 0.380462 -0.563921 -0.131921 -0.625838 -0.170481 -0.258798 -0.673148 0.252884 -0.058069 -0.186574 -0.199288 -0.322196 -0.191971 0.379067 -0.084843 0.071859 -0.006873 -0.261101 0.179698 0.233151 -0.280332
sheet -0.025919 -0.112432 0.487567 0.103171 0.038968 -0.260846 0.177442 0.581058 0.155011 -0.164190 0.374878 0.289169 -0.622742 -0.026363 -0.392717 0.168484 0.118886 0.210488 0.085024 0.016860 0.512633 -0.131018 -0.852489 -0.531782 0.190568
its 0.109597 0.358914 0.071076 -0.103091 0.226387 -0.431564 0.089509 -0.023897 0.120936 -0.257994 -0.437449 -0.175916 -0.566592 0.047898 -0.094420 -0.069405 -0.241348 -0.169611 -0.390964 -0.087657 -0.188761 -0.118757 0.138072 -0.253708 -0.379665
play -0.158912 -0.169093 0.405873 0.064119 -0.143060 -0.248451 -0.198913 -0.166306 0.056805 0.130713 -0.594324 0.291950 -0.199987 -0.007451 -0.342836 -0.012157 0.017859 -0.079570 -0.252614 -0.270024 -0.207719 0.328748 0.272844 0.070072 -0.045476
seat 0.150956 -0.182114 0.255180 -0.112495 0.073535 -0.214738 -0.086685 0.082460 -0.129398 0.036542 -0.364502 0.362713 -0.456620 0.118781 -0.093940 0.012143 -0.062019 -0.251448 -0.407638 -0.326993 0.033003 -0.635366 -0.036431 -0.352107 -0.026400
your -0.307505 0.329944 0.023751 -0.051486 -0.301533 -0.339810 -0.329871 -0.106881 0.095811 -0.219849 -0.381030 -0.135638 -0.091737 -0.040205 0.027988 0.195896 -0.275353 -0.369073 -0.076842 0.036646 -0.412026 0.075673 0.123616 0.070374 -0.207795
enjoyed -0.096171 0.273327 0.017757 0.472474 0.484047 -0.535017 -0.151265 -0.421440 -0.215089 -0.229607 -0.606801 0.004856 -0.149587 -0.003486 -0.089879 -0.396465 -0.136779 0.223014 -0.278535 -0.001538 -0.230886 0.064742 0.328376 0.312182 -0.334941
full 0.468418 0.201933 0.176329 -0.205719 -0.076009 -0.129429 -0.129997 0.245316 0.163966 0.026723 -0.490894 0.355416 -0.274025 0.177083 -0.120874 -0.223394 0.059337 0.250061 -0.298332 0.002492 0.524413 0.005879 -0.455466 -0.460031 -0.483709
tea 0.051645 0.219591 0.220742 0.103351 -0.074189 -0.002722 -0.052475 0.245533 0.116713 -0.135930 0.099034 0.199252 -0.622239 0.050667 -0.399808 0.100121 -0.234789 -0.103632 -0.133885 -0.098584 0.247845 -0.419931 -0.313329 -0.254715 -0.100236
Next 0.256752 0.157428 -0.311672 0.220889 0.421366 0.235478 -0.239964 0.274804 -0.381053 -0.101666 -0.130492 -0.369865 -0.076236 -0.117785 0.134467 -0.475783 -0.512384 -0.318134 -0.539404 -0.447279 -0.370430 0.179113 0.432568 -0.396628 -0.158280
away. 0.242826 -0.084302 -0.328187 0.450993 0.214934 -0.209164 0.032290 0.037854 0.254818 -0.155926 -0.195354 -0.008413 -0.387367 -0.445413 -0.425067 0.076931 -0.428922 0.124701 -0.335783 -0.228650 -0.510309 -0.061602 0.038560 -0.814988 -0.161590
fresh 0.056245 -0.061635 0.240980 0.081762 -0.000959 -0.106268 -0.045912 0.119761 0.293016 -0.523680 -0.186102 0.388318 -0.387408 0.274463 -0.293106 -0.047568 -0.240073 -0.220581 -0.239910 0.182528 0.250600 -0.093661 -0.217039 0.004551 -0.122851
pieces 0.249656 -0.113165 0.224592 0.288588 -0.062074 -0.582933 0.015274 0.215550 0.046155 -0.097569 0.039678 0.345694 -0.821257 -0.062340 -0.445947 -0.058963 -0.197446 0.412680 -0.342280 0.246832 0.101799 -0.079160 -0.535602 -0.328952 -0.268304
bread -0.221688 -0.065402 0.105157 0.181645 0.122095 -0.543914 0.155484 0.196564 0.089844 -0.121314 0.178938 0.301863 -0.479871 -0.148724 -0.422843 0.051255 -0.239191 0.145026 -0.138894 0.134108 0.130663 -0.276822 -0.301475 -0.247465 -0.083595
cleaned -0.251222 0.182940 -0.071454 0.019080 0.495662 -0.143021 0.080107 0.145297 0.146698 -0.230289 -0.519522 -0.226543 0.006629 -0.265068 -0.394039 -0.036814 -0.061064 0.118468 -0.294591 -0.259206 -0.058250 -0.278086 -0.057495 -0.212591 0.016239
bring -0.361094 -0.001008 0.073485 -0.057094 0.061855 0.008963 -0.142314 -0.368632 0.399261 -0.156845 -0.737345 -0.149161 -0.130842 -0.278111 -0.491161 0.132420 -0.315144 -0.181124 -0.332702 0.004709 -0.399283 0.117862 0.254685 0.306638 0.017154
close 0.048668 0.216847 -0.119915 -0.335345 -0.042319 -0.105141 -0.160006 -0.026706 0.103827 -0.060129 -0.652834 0.026231 -0.141164 -0.027289 -0.192852 0.231454 0.108249 -0.017916 -0.368009 -0.330716 0.073559 0.184781 0.071571 -0.013458 -0.425033
closed -0.152853 0.294627 0.209462 0.174790 0.481760 -0.417173 0.268769 0.372212 0.010553 -0.306360 -0.051106 -0.115637 -0.430418 -0.308669 -0.490805 -0.053368 -0.059671 -0.016614 -0.280764 -0.395534 0.075632 -0.111763 -0.389345 -0.296678 0.152355
give -0.504683 0.077038 -0.015322 0.042156 -0.058142 0.228969 -0.077801 -0.545414 0.430842 -0.257118 -0.722911 -0.162310 0.026579 -0.249096 -0.475671 -0.068673 -0.350323 -0.382947 -0.340228 0.328702 -0.383913 0.088269 0.326578 0.450733 -0.077862
line -0.059413 0.047718 0.406510 -0.556075 -0.006127 -0.372508 0.106290 -0.235676 0.025437 0.118385 -0.568198 0.146507 -0.529378 0.117403 -0.220430 -0.275404 0.201022 -0.224729 -0.563736 -0.242365 -0.121004 -0.135527 0.142975 0.124029 -0.417320
flight 0.177199 0.171783 0.052632 -0.048752 -0.166086 0.277166 -0.360720 0.198098 -0.060992 0.157355 -0.205455 0.093242 -0.491022 0.426253 0.149824 -0.139533 -0.097118 -0.243185 -0.257633 -0.056231 -0.146269 -0.582796 0.196429 0.015842 -0.219038
once 0.349016 0.362096 -0.062815 0.198876 0.171525 -0.177570 -0.499413 0.002678 0.270452 0.048612 -0.220294 -0.475364 -0.119244 -0.361428 -0.188739 -0.097711 -0.221158 0.210906 -0.113451 -0.057351 -0.511888 0.078399 0.563521 0.011113 -0.186506
putting 0.385476 -0.098577 0.034138 0.131618 0.448770 -0.731741 0.148288 -0.155833 0.681151 -0.537831 -0.327031 -0.484247 -0.606618 -0.426335 -0.612670 0.212521 -0.397014 0.422307 -0.217776 -0.155704 -0.432527 -0.008429 0.033862 -0.246323 -0.521323
quickly -0.114959 0.473098 -0.102989 0.054794 0.703488 -0.023006 -0.332417 -0.021406 -0.224457 -0.021453 -0.536036 -0.052081 -0.165308 -0.387058 -0.453055 -0.227245 0.220686 0.301779 -0.314537 -0.456807 -0.151035 -0.030455 0.082183 -0.038310 0.109546
think -0.240586 0.481735 -0.387105 -0.097700 0.104631 0.445561 -0.794673 -0.343758 0.394202 0.026622 -0.425842 -0.508386 -0.139136 -0.188249 -0.393451 -0.545140 -0.056529 -0.125194 -0.146713 0.267546 -0.167654 0.034119 0.246382 0.369290 -0.361208
end -0.003799 -0.100917 0.058811 -0.064144 -0.171671 -0.448721 -0.169296 0.471820 0.267818 -0.082262 -0.353365 -0.302045 -0.547104 0.011472 -0.228365 -0.389423 -0.229120 0.009656 -0.394257 0.261709 -0.078446 -0.036589 -0.440089 -0.199507 -0.584031
feel -0.028894 0.111068 -0.550031 -0.521975 -0.287808 0.394291 -0.842092 -0.262503 0.481751 -0.172215 -0.856409 -0.292601 0.183505 -0.070993 -0.292535 -0.170236 0.296354 -0.227331 -0.071538 0.106711 -0.411117 0.013985 0.291781 0.384453 -0.288075
happy 0.224699 0.462978 -0.186076 -0.567662 0.226717 0.098502 -0.767690 -0.063502 0.383090 0.229007 -1.034072 -0.160107 0.211434 0.288801 0.010510 -0.086550 0.059942 0.346522 -0.522210 -0.401522 0.210781 0.167657 0.375672 0.170798 -0.421008
vacuum -0.321427 -0.090716 0.303950 -0.032181 -0.092135 -0.188281 0.253449 0.318642 0.122962 -0.166568 -0.231038 0.135589 -0.428539 -0.427175 -0.510220 0.113792 -0.222230 -0.015301 -0.209874 -0.143538 0.055049 -0.045503 -0.327129 -0.368634 0.116331
Next, 0.283242 0.307997 -0.193679 0.379781 0.364580 0.165551 -0.249765 0.139632 -0.424401 -0.137442 -0.050715 -0.361356 -0.075208 -0.254054 -0.118611 -0.499845 -0.542078 -0.075904 -0.359325 -0.359737 -0.210164 0.226547 0.362968 -0.234288 -0.037661
amount 0.444274 -0.087326 0.346399 0.020616 -0.409044 -0.155363 -0.133963 0.138037 0.142674 0.116556 0.068166 0.096213 -0.737576 0.129280 -0.350468 -0.321422 -0.088775 0.288042 -0.292459 0.304177 0.387293 0.016243 -0.632982 -0.305257 -0.447221
cooked 0.177317 0.218515 -0.199808 0.032379 0.268034 -0.306047 -0.249449 -0.004860 0.269844 -0.087118 -0.492213 0.093329 0.002948 -0.378329 -0.234877 -0.095128 0.002370 0.264298 -0.113858 -0.152327 -0.185141 0.109591 0.185586 -0.214611 -0.210431
hand 0.067765 0.095453 0.229624 -0.201011 0.156142 -0.451916 -0.028583 0.124952 -0.021455 -0.289209 -0.400851 -0.017687 -0.526257 0.056091 -0.331954 0.279318 -0.145584 -0.120832 -0.368403 -0.048520 0.020061 -0.428954 -0.410138 -0.205172 -0.299577
there. 0.050283 -0.024142 -0.273669 0.089507 0.184839 -0.150591 -0.164926 -0.066267 -0.373143 -0.047757 -0.707702 -0.045564 -0.041858 -0.192519 0.112001 -0.227310 -0.350375 0.067187 -0.604742 -0.350764 -0.414934 0.060432 0.455704 -0.250741 -0.541802
car. -0.058711 0.408300 0.134998 0.252776 0.209660 -0.211896 0.126988 0.130491 -0.641015 -0.185572 -0.349580 0.133610 -0.201101 -0.117578 -0.106975 -0.181026 -0.664815 -0.402555 -0.475386 -0.435097 -0.186288 -0.394928 -0.108421 -0.579405 -0.039229
done, 0.417412 0.458646 -0.513753 0.117871 0.550914 -0.290546 -0.605787 0.279939 -0.135755 -0.009680 -0.674957 -0.461198 0.165324 -0.453312 0.036362 -0.331182 -0.189476 0.670223 -0.361767 -0.385731 -0.186949 0.159837 0.572413 -0.274740 -0.530699
towel 0.008708 -0.121460 0.257662 -0.095137 0.112241 -0.053896 -0.017961 -0.069737 0.174756 -0.296718 -0.394189 0.483665 -0.470442 -0.037671 -0.534747 0.304377 -0.024121 -0.072678 -0.300491 -0.375906 0.310981 -0.369454 -0.297321 -0.258939 0.018576
